\data\
ngram 1=200
ngram 2=2824

\1-grams:
-3.5355878	<unk>	0
0	<s>	-4.6290793
-2.2762027	</s>	0
-2.499007	PACKAGE	-5.2510085
-1.4298793	IDENTIFIER	-6.694338
-1.8386033	DOT	-6.611861
-1.8178943	SEMI	-6.112719
-2.6088352	IMPORT	-6.336092
-2.0044718	PUBLIC	-5.737154
-2.1509063	CLASS	-5.276629
-2.4530106	EXTENDS	-5.046814
-1.4510788	LT	-5.4144874
-2.0537817	GT	-4.87791
-1.9074086	LBRACE	-5.6808386
-1.5819223	LPAREN	-6.4166484
-1.7188675	RPAREN	-6.1055365
-1.8493402	SUPER	-4.8935213
-1.6953655	RBRACE	-5.686608
-2.2216768	EOF	-6.2768664
-1.8178943	INT	-5.713857
-1.8716447	FLOAT	-4.934656
-1.960194	VOID	-5.801847
-2.109416	EQ	-5.815232
-2.2216768	IF	-6.5213823
-2.1732392	BANGEQ	-4.965939
-1.9744575	NULL	-5.553127
-1.6878059	MONKEYS_AT	-5.5883718
-2.1509063	PROTECTED	-4.8242297
-1.8951572	COMMA	-6.071276
-1.6878059	INTLITERAL	-5.7001333
-1.752323	NEW	-5.733948
-1.7030591	SUB	-5.0850353
-2.2216768	SLASH	-4.316263
-1.6953655	PLUS	-5.407536
-1.9463841	STAR	-4.717144
-1.960194	FLOATLITERAL	-4.622643
-2.109416	EQEQ	-5.0604444
-2.6762958	ELSE	-4.969229
-2.2762027	RETURN	-5.5408382
-1.9463841	LBRACKET	-5.452348
-2.2216768	RBRACKET	-5.056237
-2.373471	FOR	-5.731632
-1.8386033	PLUSPLUS	-4.6496634
-2.373471	LTEQ	-4.1880856
-2.109416	PRIVATE	-5.3408775
-1.8716447	TRUE	-5.078408
-1.7188675	THIS	-5.532361
-1.8951572	BOOLEAN	-5.3981915
-2.1296659	FINAL	-5.53668
-1.9074086	FALSE	-5.0783386
-1.8178943	STRINGLITERAL	-5.9795556
-2.1509063	QUES	-4.6249228
-2.4530106	TRY	-5.3761115
-2.8541892	CATCH	-5.687177
-2.0044718	COLON	-4.7686596
-2.1509063	STATIC	-5.3191266
-2.8541892	THROWS	-5.8308916
-2.373471	GTGT	-4.259615
-2.4114223	THROW	-5.075125
-2.0900686	ELLIPSIS	-4.1027417
-2.2480845	BARBAR	-4.453833
-2.1509063	AMPAMP	-4.7006326
-2.2480845	INTERFACE	-4.838241
-2.9809377	FINALLY	-5.1102896
-1.9463841	BANG	-4.7774534
-2.4114223	SWITCH	-4.997387
-2.756197	CASE	-5.0937
-2.4114223	DEFAULT	-3.8634133
-2.196783	PERCENT	-3.700602
-2.2480845	INSTANCEOF	-4.743408
-2.373471	GTEQ	-4.231891
-2.373471	NATIVE	-4.0829935
-2.4530106	DO	-3.4735267
-1.8386033	SUBSUB	-3.7680795
-2.4530106	WHILE	-5.138015
-3.0969234	STAREQ	-3.183886
-1.8493402	DOUBLE	-5.000719
-2.756197	PLUSEQ	-4.251985
-1.9329998	SHORT	-4.4129434
-2.4114223	IMPLEMENTS	-5.291539
-2.499007	BREAK	-5.3035746
-2.8541892	SUBEQ	-3.5902023
-1.8951572	BYTE	-5.145461
-2.2762027	AMP	-4.2973433
-2.2216768	BAR	-3.9699357
-2.109416	LTLT	-4.050373
-2.1732392	SYNCHRONIZED	-4.040965
-3.0969234	SLASHEQ	-2.8932936
-1.7981281	CHARLITERAL	-4.5165777
-1.9074086	CHAR	-4.516741
-2.5504587	CONTINUE	-4.638039
-1.8716447	LONG	-5.2509933
-2.4114223	VOLATILE	-3.4798129
-2.196783	ENUM	-4.102953
-2.338571	ABSTRACT	-4.175543
-1.8716447	DOUBLELITERAL	-4.56333
-3.0969234	GTGTEQ	-2.5233889
-2.9809377	PERCENTEQ	-2.183724
-3.0969234	LTLTEQ	-2.7124083
-1.8078988	LONGLITERAL	-4.5301824
-2.9809377	BAREQ	-3.7041006
-2.338571	GTGTGT	-3.634994
-2.373471	CARET	-3.5728512
-2.9809377	CARETEQ	-2.9229395
-2.9809377	AMPEQ	-2.9973347
-1.8493402	TILDE	-3.6699185
-2.6762958	ARROW	-4.10906
-2.373471	COLCOL	-4.2582383
-2.2762027	ASSERT	-3.8054917
-2.373471	TRANSIENT	-3.2790258
-3.0969234	GTGTGTEQ	-2.6083
-1.7700696	UNDERSCORE	-2.5853813
-2.2762027	STRICTFP	-1.0991406
-3.4402308	EOF#	-0.23511072
-3.4402308	#	-0.34746906
-3.4402308	A	-0.23511072
-3.4402308	fatal	-0.23511072
-3.0969234	error	-0.23511072
-3.4402308	has	-0.23511072
-3.0969234	been	-0.23511072
-3.4402308	detected	-0.23511072
-3.4402308	by	-0.23511072
-3.4402308	the	-0.23511072
-2.8541892	Java	-0.23511072
-3.0969234	Runtime	-0.23511072
-3.4402308	Environment:	-0.23511072
-3.4402308	SIGSEGV	-0.23511072
-3.4402308	(0xb)	-0.23511072
-3.4402308	at	-0.23511072
-3.4402308	pc=0x00007fe3f2a8c731,	-0.23511072
-3.4402308	pid=13760,	-0.23511072
-3.4402308	tid=0x00007fe3a41d6700	-0.23511072
-3.4402308	JRE	-0.23511072
-3.4402308	version:	-0.23511072
-3.4402308	Java(TM)	-0.23511072
-3.4402308	SE	-0.23511072
-3.4402308	Environment	-0.23511072
-3.4402308	(8.0_151-b12)	-0.23511072
-3.4402308	(build	-0.23511072
-3.4402308	1.8.0_151-b12)	-0.23511072
-3.4402308	VM:	-0.23511072
-3.4402308	HotSpot(TM)	-0.23511072
-3.4402308	64-Bit	-0.23511072
-3.4402308	Server	-0.23511072
-3.4402308	VM	-0.23511072
-3.4402308	(25.151-b12	-0.23511072
-3.4402308	mixed	-0.23511072
-3.4402308	mode	-0.23511072
-3.4402308	linux-amd64	-0.23511072
-3.4402308	compressed	-0.23511072
-3.4402308	oops)	-0.23511072
-3.4402308	Problematic	-0.23511072
-3.4402308	frame:	-0.23511072
-3.4402308	V	-0.23511072
-3.4402308	[libjvm.so+0x6a2731]	-0.23511072
-3.4402308	BacktraceBuilder::push(Method*,	-0.23511072
-3.4402308	int,	-0.23511072
-3.4402308	Thread*)+0x201	-0.23511072
-3.4402308	Failed	-0.23511072
-3.0969234	to	-0.23511072
-3.4402308	write	-0.23511072
-3.0969234	core	-0.23511072
-3.4402308	dump.	-0.23511072
-3.4402308	Core	-0.23511072
-3.4402308	dumps	-0.23511072
-3.4402308	have	-0.23511072
-3.4402308	disabled.	-0.23511072
-3.4402308	To	-0.23511072
-3.4402308	enable	-0.23511072
-3.4402308	dumping,	-0.23511072
-3.4402308	try	-0.23511072
-3.4402308	"ulimit	-0.23511072
-3.4402308	-c	-0.23511072
-3.4402308	unlimited"	-0.23511072
-3.4402308	before	-0.23511072
-3.4402308	starting	-0.23511072
-3.4402308	again	-0.23511072
-3.4402308	An	-0.23511072
-3.4402308	report	-0.23511072
-3.4402308	file	-0.23511072
-3.4402308	with	-0.23511072
-3.4402308	more	-0.23511072
-3.4402308	information	-0.23511072
-3.4402308	is	-0.23511072
-3.4402308	saved	-0.23511072
-3.4402308	as:	-0.23511072
-3.4402308	/media/crouton/alex/cmput563_insyn/hs_err_pid13760.log	-0.23511072
-3.4402308	If	-0.23511072
-3.4402308	you	-0.23511072
-3.4402308	would	-0.23511072
-3.4402308	like	-0.23511072
-3.4402308	submit	-0.23511072
-3.4402308	a	-0.23511072
-3.4402308	bug	-0.23511072
-3.4402308	report,	-0.23511072
-3.4402308	please	-0.23511072
-3.4402308	visit:	-0.23511072
-3.4402308	http://bugreport.java.com/bugreport/crash.jsp	-0.23511072
-2.9809377	CONST	-0.23378463
-2.6762958	GOTO	-0.9016654

\2-grams:
-6.518436	<s> </s>
-2.3297379e-7	EOF </s>
-0.37558782	EOF# </s>
-0.54885167	# </s>
-0.37558782	Environment: </s>
-0.37558782	tid=0x00007fe3a41d6700 </s>
-0.37558782	1.8.0_151-b12) </s>
-0.37558782	oops) </s>
-0.37558782	frame: </s>
-0.37558782	Thread*)+0x201 </s>
-0.37558782	again </s>
-0.37558782	as: </s>
-0.37558782	/media/crouton/alex/cmput563_insyn/hs_err_pid13760.log </s>
-0.37558782	visit: </s>
-0.37558782	http://bugreport.java.com/bugreport/crash.jsp </s>
-0.011522706	<s> PACKAGE
-5.280631	IDENTIFIER PACKAGE
-6.601354	DOT PACKAGE
-8.229577	SEMI PACKAGE
-6.6367416	GT PACKAGE
-5.0784674	LBRACE PACKAGE
-5.036766	RPAREN PACKAGE
-5.121017	RBRACE PACKAGE
-2.668678	PERCENTEQ PACKAGE
-3.4423075	<s> IDENTIFIER
-0.000088047105	PACKAGE IDENTIFIER
-1.1303817	IDENTIFIER IDENTIFIER
-0.008117173	DOT IDENTIFIER
-0.5295618	SEMI IDENTIFIER
-0.019380255	IMPORT IDENTIFIER
-0.5269652	PUBLIC IDENTIFIER
-0.28437153	CLASS IDENTIFIER
-0.00023780184	EXTENDS IDENTIFIER
-0.08181497	LT IDENTIFIER
-0.18094286	GT IDENTIFIER
-0.3783006	LBRACE IDENTIFIER
-0.3375318	LPAREN IDENTIFIER
-1.5701929	RPAREN IDENTIFIER
-1.1875317	SUPER IDENTIFIER
-1.142499	RBRACE IDENTIFIER
-0.033285875	INT IDENTIFIER
-0.13340749	FLOAT IDENTIFIER
-0.00021330098	VOID IDENTIFIER
-0.27941614	EQ IDENTIFIER
-0.860577	BANGEQ IDENTIFIER
-0.0014047712	MONKEYS_AT IDENTIFIER
-0.36193267	PROTECTED IDENTIFIER
-0.23744218	COMMA IDENTIFIER
-4.7482233	INTLITERAL IDENTIFIER
-0.016905092	NEW IDENTIFIER
-0.54004705	SUB IDENTIFIER
-0.4709557	SLASH IDENTIFIER
-0.42671746	PLUS IDENTIFIER
-0.38116875	STAR IDENTIFIER
-5.821747	FLOATLITERAL IDENTIFIER
-0.54679644	EQEQ IDENTIFIER
-1.4343373	ELSE IDENTIFIER
-0.25554076	RETURN IDENTIFIER
-0.5134808	LBRACKET IDENTIFIER
-0.494336	RBRACKET IDENTIFIER
-5.3675942	FOR IDENTIFIER
-0.97084457	PLUSPLUS IDENTIFIER
-0.33289808	LTEQ IDENTIFIER
-0.4661678	PRIVATE IDENTIFIER
-4.7790084	THIS IDENTIFIER
-0.0068827905	BOOLEAN IDENTIFIER
-0.16224144	FINAL IDENTIFIER
-4.3960333	FALSE IDENTIFIER
-5.163492	STRINGLITERAL IDENTIFIER
-0.63111836	QUES IDENTIFIER
-5.898393	TRY IDENTIFIER
-0.2725508	COLON IDENTIFIER
-0.48458415	STATIC IDENTIFIER
-0.0000135385735	THROWS IDENTIFIER
-0.16937086	GTGT IDENTIFIER
-0.9259706	THROW IDENTIFIER
-0.00059075706	ELLIPSIS IDENTIFIER
-0.14151436	BARBAR IDENTIFIER
-0.16903494	AMPAMP IDENTIFIER
-0.000042765725	INTERFACE IDENTIFIER
-5.78535	FINALLY IDENTIFIER
-0.06820388	BANG IDENTIFIER
-0.1875476	CASE IDENTIFIER
-1.1007191	DEFAULT IDENTIFIER
-0.459799	PERCENT IDENTIFIER
-0.004847987	INSTANCEOF IDENTIFIER
-0.40462062	GTEQ IDENTIFIER
-0.68685204	NATIVE IDENTIFIER
-1.5946398	DO IDENTIFIER
-0.7078272	SUBSUB IDENTIFIER
-0.26015985	STAREQ IDENTIFIER
-0.124881834	DOUBLE IDENTIFIER
-0.19029252	PLUSEQ IDENTIFIER
-0.3658228	SHORT IDENTIFIER
-0.00003896013	IMPLEMENTS IDENTIFIER
-1.4827323	BREAK IDENTIFIER
-0.13122821	SUBEQ IDENTIFIER
-0.90302277	BYTE IDENTIFIER
-0.49368918	AMP IDENTIFIER
-0.17420071	BAR IDENTIFIER
-0.7732276	LTLT IDENTIFIER
-0.93058056	SYNCHRONIZED IDENTIFIER
-0.23168916	SLASHEQ IDENTIFIER
-5.8201084	CHARLITERAL IDENTIFIER
-0.40979326	CHAR IDENTIFIER
-1.2305716	CONTINUE IDENTIFIER
-0.044210125	LONG IDENTIFIER
-0.3120625	VOLATILE IDENTIFIER
-0.00031996486	ENUM IDENTIFIER
-0.5439267	ABSTRACT IDENTIFIER
-4.887699	DOUBLELITERAL IDENTIFIER
-1.1077225	GTGTEQ IDENTIFIER
-0.3541821	PERCENTEQ IDENTIFIER
-1.0492319	LTLTEQ IDENTIFIER
-5.576007	LONGLITERAL IDENTIFIER
-0.3229486	BAREQ IDENTIFIER
-0.5145524	GTGTGT IDENTIFIER
-0.3831718	CARET IDENTIFIER
-0.17842163	CARETEQ IDENTIFIER
-0.3908121	AMPEQ IDENTIFIER
-0.46200687	TILDE IDENTIFIER
-0.27234787	ARROW IDENTIFIER
-0.050087593	COLCOL IDENTIFIER
-0.15000331	ASSERT IDENTIFIER
-0.15155005	TRANSIENT IDENTIFIER
-1.0624299	GTGTGTEQ IDENTIFIER
-2.1313276	UNDERSCORE IDENTIFIER
-1.6254369	STRICTFP IDENTIFIER
-0.10258791	GOTO IDENTIFIER
-6.157989	<s> DOT
-6.0686545	PACKAGE DOT
-0.5259895	IDENTIFIER DOT
-8.098567	DOT DOT
-7.296806	SEMI DOT
-7.342457	PUBLIC DOT
-1.305809	CLASS DOT
-3.4903655	GT DOT
-7.402941	LBRACE DOT
-6.942457	LPAREN DOT
-1.1143998	RPAREN DOT
-0.35418552	SUPER DOT
-3.3255138	RBRACE DOT
-2.7374706	INT DOT
-2.2488885	FLOAT DOT
-3.3592925	VOID DOT
-7.363591	EQ DOT
-6.081425	NULL DOT
-5.9703307	MONKEYS_AT DOT
-7.329722	INTLITERAL DOT
-5.792929	PLUS DOT
-4.7554045	STAR DOT
-1.2181786	RBRACKET DOT
-6.3794837	TRUE DOT
-0.10285402	THIS DOT
-2.615288	BOOLEAN DOT
-6.3960958	FALSE DOT
-2.0048163	STRINGLITERAL DOT
-4.088795	GTGT DOT
-4.389145	ELLIPSIS DOT
-6.162842	BANG DOT
-2.2871583	DOUBLE DOT
-1.401143	SHORT DOT
-2.5561984	BYTE DOT
-1.9977553	CHAR DOT
-2.279882	LONG DOT
-3.4227	ENUM DOT
-5.3976173	DOUBLELITERAL DOT
-4.2214603	GTGTGT DOT
-5.355619	ASSERT DOT
-2.1843865	UNDERSCORE DOT
-5.2459717	PACKAGE SEMI
-1.157902	IDENTIFIER SEMI
-7.535423	DOT SEMI
-3.6784456	SEMI SEMI
-1.7535721	CLASS SEMI
-3.5987525	GT SEMI
-3.9686944	LBRACE SEMI
-3.7499824	LPAREN SEMI
-0.37806597	RPAREN SEMI
-6.1438565	SUPER SEMI
-1.8243512	RBRACE SEMI
-6.608444	EQ SEMI
-0.63152796	NULL SEMI
-5.7129765	MONKEYS_AT SEMI
-4.325668	COMMA SEMI
-0.6860168	INTLITERAL SEMI
-4.275054	NEW SEMI
-6.651687	PLUS SEMI
-0.45477647	STAR SEMI
-1.1154685	FLOATLITERAL SEMI
-4.5949154	ELSE SEMI
-1.3673022	RETURN SEMI
-0.86461604	RBRACKET SEMI
-0.6619363	PLUSPLUS SEMI
-0.36571652	TRUE SEMI
-1.2340399	THIS SEMI
-0.27623138	FALSE SEMI
-1.123354	STRINGLITERAL SEMI
-3.4237382	COLON SEMI
-5.700091	GTGT SEMI
-6.2155924	THROW SEMI
-3.5692112	ELLIPSIS SEMI
-3.614647	DO SEMI
-0.3284459	SUBSUB SEMI
-5.7696543	PLUSEQ SEMI
-0.01454124	BREAK SEMI
-1.1844637	CHARLITERAL SEMI
-0.026354378	CONTINUE SEMI
-4.196189	ENUM SEMI
-1.065173	DOUBLELITERAL SEMI
-0.7874988	LONGLITERAL SEMI
-4.781805	ASSERT SEMI
-1.4015591	UNDERSCORE SEMI
-1.896485	<s> IMPORT
-7.3506083	IDENTIFIER IMPORT
-0.79253894	SEMI IMPORT
-5.713399	GT IMPORT
-7.840549	LBRACE IMPORT
-7.0514784	RBRACE IMPORT
-7.8413987	EQ IMPORT
-2.299163	<s> PUBLIC
-6.6222653	PACKAGE PUBLIC
-1.9567745	IDENTIFIER PUBLIC
-7.414269	DOT PUBLIC
-1.3496858	SEMI PUBLIC
-7.2550225	PUBLIC PUBLIC
-4.85976	GT PUBLIC
-1.6610596	LBRACE PUBLIC
-6.469581	LPAREN PUBLIC
-2.2680826	RPAREN PUBLIC
-0.717866	RBRACE PUBLIC
-7.588592	EQ PUBLIC
-6.5363593	MONKEYS_AT PUBLIC
-3.2648332	SLASH PUBLIC
-6.3937793	STAR PUBLIC
-6.848951	RBRACKET PUBLIC
-7.00982	PRIVATE PUBLIC
-2.6414115	FINAL PUBLIC
-6.5673447	COLON PUBLIC
-2.3640695	STATIC PUBLIC
-6.4092026	BANG PUBLIC
-3.1163883	DEFAULT PUBLIC
-1.2933918	NATIVE PUBLIC
-1.9087179	SYNCHRONIZED PUBLIC
-3.4983044	VOLATILE PUBLIC
-1.6021432	ABSTRACT PUBLIC
-2.6427634	TRANSIENT PUBLIC
-2.4236977	STRICTFP PUBLIC
-2.331194	<s> CLASS
-5.16388	IDENTIFIER CLASS
-1.871602	DOT CLASS
-3.2481666	SEMI CLASS
-7.608744	IMPORT CLASS
-1.1035956	PUBLIC CLASS
-4.8852415	GT CLASS
-3.8124359	LBRACE CLASS
-4.5093665	RPAREN CLASS
-2.8963475	RBRACE CLASS
-2.4114578	PROTECTED CLASS
-4.989143	STAR CLASS
-6.932901	RBRACKET CLASS
-2.0531957	PRIVATE CLASS
-1.6700802	FINAL CLASS
-5.695015	COLON CLASS
-1.2533529	STATIC CLASS
-5.681996	SYNCHRONIZED CLASS
-0.46236125	ABSTRACT CLASS
-0.44006836	STRICTFP CLASS
-2.5748248	IDENTIFIER EXTENDS
-2.154836	GT EXTENDS
-7.3325677	RBRACE EXTENDS
-7.7890344	COMMA EXTENDS
-7.2794757	PLUS EXTENDS
-6.5503726	STAR EXTENDS
-0.8435449	QUES EXTENDS
-2.1596844	GTGT EXTENDS
-3.5469418	GTGTGT EXTENDS
-4.296783	UNDERSCORE EXTENDS
-4.7488403	<s> LT
-5.733532	PACKAGE LT
-1.7096945	IDENTIFIER LT
-3.180548	DOT LT
-3.9563003	SEMI LT
-6.1429315	IMPORT LT
-2.3656633	PUBLIC LT
-4.203879	CLASS LT
-4.3726435	EXTENDS LT
-6.6810555	LT LT
-4.054834	GT LT
-3.9614801	LBRACE LT
-4.8936124	LPAREN LT
-3.1107016	RPAREN LT
-4.7765636	SUPER LT
-4.0436106	RBRACE LT
-4.4211717	INT LT
-5.0778503	FLOAT LT
-4.367527	VOID LT
-4.5286827	EQ LT
-5.2162466	IF LT
-5.4367633	BANGEQ LT
-4.622457	NULL LT
-5.5750203	MONKEYS_AT LT
-2.1932817	PROTECTED LT
-5.0946107	COMMA LT
-3.2358673	INTLITERAL LT
-4.2777395	NEW LT
-5.354529	SUB LT
-5.603446	SLASH LT
-5.133827	PLUS LT
-5.4401655	STAR LT
-3.7433536	FLOATLITERAL LT
-4.3828864	EQEQ LT
-4.962128	ELSE LT
-4.6714497	RETURN LT
-5.368902	LBRACKET LT
-2.7796211	RBRACKET LT
-4.5866985	FOR LT
-2.9031937	PLUSPLUS LT
-5.430334	LTEQ LT
-2.7910404	PRIVATE LT
-4.9905796	TRUE LT
-5.1509347	THIS LT
-4.958255	BOOLEAN LT
-3.1146595	FINAL LT
-5.1352253	FALSE LT
-4.9204493	STRINGLITERAL LT
-4.7342005	QUES LT
-4.9468336	TRY LT
-5.899963	CATCH LT
-4.546456	COLON LT
-1.8696091	STATIC LT
-4.988695	THROWS LT
-4.769902	GTGT LT
-4.770075	THROW LT
-3.8654366	ELLIPSIS LT
-4.7026067	BARBAR LT
-4.613462	AMPAMP LT
-4.1121716	INTERFACE LT
-4.95055	BANG LT
-4.3100333	SWITCH LT
-4.5737963	CASE LT
-1.8209865	DEFAULT LT
-4.5986943	INSTANCEOF LT
-4.9473047	GTEQ LT
-3.0195968	NATIVE LT
-3.7366533	DO LT
-3.5597923	SUBSUB LT
-4.238812	WHILE LT
-4.4249315	STAREQ LT
-4.9024262	DOUBLE LT
-4.5547285	PLUSEQ LT
-5.0582576	SHORT LT
-4.357135	IMPLEMENTS LT
-4.7632246	BREAK LT
-5.526522	BYTE LT
-4.190421	AMP LT
-4.063331	BAR LT
-4.056709	LTLT LT
-2.490826	SYNCHRONIZED LT
-4.3153853	CHARLITERAL LT
-4.46617	CHAR LT
-4.3292837	CONTINUE LT
-5.120833	LONG LT
-4.236584	VOLATILE LT
-4.929044	ENUM LT
-2.1046982	ABSTRACT LT
-3.5263858	DOUBLELITERAL LT
-3.9894881	LONGLITERAL LT
-4.9604945	BAREQ LT
-4.9315805	GTGTGT LT
-4.7161283	CARET LT
-4.6404257	TILDE LT
-3.654743	ARROW LT
-2.622479	COLCOL LT
-3.6019754	ASSERT LT
-3.504499	TRANSIENT LT
-2.7570696	UNDERSCORE LT
-1.8942308	STRICTFP LT
-1.8555884	IDENTIFIER GT
-1.2857893	LT GT
-3.8195963	GT GT
-2.7031908	RPAREN GT
-6.536034	INT GT
-6.0589952	EQ GT
-5.9037557	MONKEYS_AT GT
-3.6477108	INTLITERAL GT
-4.365699	SLASH GT
-7.1347404	PLUS GT
-6.416263	STAR GT
-3.7503412	FLOATLITERAL GT
-1.8723004	RBRACKET GT
-3.1441522	PLUSPLUS GT
-3.5623276	STRINGLITERAL GT
-0.6156148	QUES GT
-4.2852135	GTGT GT
-5.663761	BANG GT
-3.5023396	PERCENT GT
-1.3479455	SUBSUB GT
-4.4153438	CHARLITERAL GT
-3.712444	DOUBLELITERAL GT
-4.2404366	LONGLITERAL GT
-1.4607947	GTGTGT GT
-1.6356722	UNDERSCORE GT
-5.2405486	<s> LBRACE
-4.736078	PACKAGE LBRACE
-1.97776	IDENTIFIER LBRACE
-7.636101	DOT LBRACE
-3.4202664	SEMI LBRACE
-5.8020163	IMPORT LBRACE
-7.220925	PUBLIC LBRACE
-6.0112853	CLASS LBRACE
-6.2520366	EXTENDS LBRACE
-1.4261721	GT LBRACE
-2.6225686	LBRACE LBRACE
-3.2211573	LPAREN LBRACE
-0.6690377	RPAREN LBRACE
-2.8675668	RBRACE LBRACE
-2.2262893	EQ LBRACE
-7.079016	NULL LBRACE
-2.2734978	COMMA LBRACE
-7.3709416	INTLITERAL LBRACE
-6.526958	NEW LBRACE
-0.22307093	ELSE LBRACE
-1.0307466	RBRACKET LBRACE
-6.2739882	PLUSPLUS LBRACE
-6.679667	FINAL LBRACE
-0.01981046	TRY LBRACE
-1.4483442	COLON LBRACE
-1.884075	STATIC LBRACE
-1.4927415	GTGT LBRACE
-0.000004504182	FINALLY LBRACE
-1.7474124	DEFAULT LBRACE
-5.5598226	GTEQ LBRACE
-0.012091082	DO LBRACE
-1.9988708	GTGTGT LBRACE
-0.4576711	ARROW LBRACE
-5.3896685	ASSERT LBRACE
-2.556349	UNDERSCORE LBRACE
-5.187149	<s> LPAREN
-0.6460955	IDENTIFIER LPAREN
-8.063882	DOT LPAREN
-3.2798686	SEMI LPAREN
-2.9582639	LT LPAREN
-0.747911	GT LPAREN
-2.7253666	LBRACE LPAREN
-1.8402238	LPAREN LPAREN
-2.6970725	RPAREN LPAREN
-0.30775395	SUPER LPAREN
-3.8471909	RBRACE LPAREN
-7.035961	INT LPAREN
-6.868548	VOID LPAREN
-1.2698464	EQ LPAREN
-0.0000028474658	IF LPAREN
-2.5836246	BANGEQ LPAREN
-5.7755055	MONKEYS_AT LPAREN
-1.9343331	COMMA LPAREN
-6.7684703	INTLITERAL LPAREN
-5.1576056	NEW LPAREN
-1.6906396	SUB LPAREN
-0.97619987	SLASH LPAREN
-1.5867205	PLUS LPAREN
-1.3150647	STAR LPAREN
-2.3978775	EQEQ LPAREN
-3.7975569	ELSE LPAREN
-1.4106759	RETURN LPAREN
-2.3780181	LBRACKET LPAREN
-6.470555	RBRACKET LPAREN
-0.000013900988	FOR LPAREN
-4.4689035	PLUSPLUS LPAREN
-1.9629769	LTEQ LPAREN
-1.6563045	THIS LPAREN
-6.659679	BOOLEAN LPAREN
-1.6797856	QUES LPAREN
-1.3509235	TRY LPAREN
-0.0000015013887	CATCH LPAREN
-1.9491417	COLON LPAREN
-0.83554584	GTGT LPAREN
-1.8018041	THROW LPAREN
-5.344941	ELLIPSIS LPAREN
-0.8031552	BARBAR LPAREN
-0.8798896	AMPAMP LPAREN
-1.0068146	BANG LPAREN
-0.00002599029	SWITCH LPAREN
-2.3117092	CASE LPAREN
-4.825491	DEFAULT LPAREN
-1.5619906	PERCENT LPAREN
-3.9511452	INSTANCEOF LPAREN
-2.0920062	GTEQ LPAREN
-3.7944195	SUBSUB LPAREN
-0.000028760263	WHILE LPAREN
-1.4146773	STAREQ LPAREN
-6.1805224	DOUBLE LPAREN
-1.2786186	PLUSEQ LPAREN
-1.2934756	SUBEQ LPAREN
-1.3522477	AMP LPAREN
-0.5501284	BAR LPAREN
-1.1434261	LTLT LPAREN
-0.2811969	SYNCHRONIZED LPAREN
-1.2086222	SLASHEQ LPAREN
-1.7143565	GTGTEQ LPAREN
-1.6593212	PERCENTEQ LPAREN
-1.5490949	LTLTEQ LPAREN
-1.0137808	BAREQ LPAREN
-1.0259326	GTGTGT LPAREN
-0.72476506	CARET LPAREN
-0.6059797	CARETEQ LPAREN
-1.1707504	AMPEQ LPAREN
-1.0501086	TILDE LPAREN
-1.7384738	ARROW LPAREN
-0.7758333	ASSERT LPAREN
-1.430536	GTGTGTEQ LPAREN
-0.09825132	UNDERSCORE LPAREN
-1.0299181	IDENTIFIER RPAREN
-8.041211	DOT RPAREN
-3.2232351	SEMI RPAREN
-0.5349427	CLASS RPAREN
-6.958839	LT RPAREN
-1.7588595	GT RPAREN
-0.5036067	LPAREN RPAREN
-0.87328506	RPAREN RPAREN
-6.2939534	SUPER RPAREN
-1.6486872	RBRACE RPAREN
-1.5491188	INT RPAREN
-0.9116228	FLOAT RPAREN
-7.110338	VOID RPAREN
-6.902965	EQ RPAREN
-0.28805164	NULL RPAREN
-6.050326	MONKEYS_AT RPAREN
-6.3076453	COMMA RPAREN
-0.5100955	INTLITERAL RPAREN
-3.232491	NEW RPAREN
-6.517379	SUB RPAREN
-5.642465	PLUS RPAREN
-4.082668	STAR RPAREN
-0.7482925	FLOATLITERAL RPAREN
-6.121776	EQEQ RPAREN
-6.913425	LBRACKET RPAREN
-1.0156044	RBRACKET RPAREN
-0.2436684	PLUSPLUS RPAREN
-0.36224097	TRUE RPAREN
-1.147438	THIS RPAREN
-2.783109	BOOLEAN RPAREN
-0.47593194	FALSE RPAREN
-0.40929338	STRINGLITERAL RPAREN
-6.1773157	QUES RPAREN
-5.3542213	COLON RPAREN
-1.9167747	GTGT RPAREN
-6.192823	THROW RPAREN
-3.9090238	ELLIPSIS RPAREN
-5.980408	BARBAR RPAREN
-4.6328764	BANG RPAREN
-5.668846	GTEQ RPAREN
-0.6731109	SUBSUB RPAREN
-1.2853992	DOUBLE RPAREN
-0.3987431	SHORT RPAREN
-0.5002281	BYTE RPAREN
-5.7341747	AMP RPAREN
-0.39146775	CHARLITERAL RPAREN
-0.7504508	CHAR RPAREN
-1.5381402	LONG RPAREN
-5.219174	ENUM RPAREN
-0.60816824	DOUBLELITERAL RPAREN
-0.6315162	LONGLITERAL RPAREN
-2.4562008	GTGTGT RPAREN
-5.2898965	ASSERT RPAREN
-1.2229341	UNDERSCORE RPAREN
-6.2915344	<s> SUPER
-4.5723867	DOT SUPER
-3.1739373	SEMI SUPER
-4.979763	LT SUPER
-4.875092	GT SUPER
-1.6143718	LBRACE SUPER
-3.7438402	LPAREN SUPER
-3.6316245	RPAREN SUPER
-3.1465902	RBRACE SUPER
-2.8673835	EQ SUPER
-4.7272086	BANGEQ SUPER
-4.055307	COMMA SUPER
-4.3207974	SUB SUPER
-4.817277	SLASH SUPER
-3.5093324	PLUS SUPER
-3.9784095	STAR SUPER
-4.724992	EQEQ SUPER
-3.0439174	ELSE SUPER
-2.0751753	RETURN SUPER
-5.134389	LBRACKET SUPER
-4.468309	LTEQ SUPER
-1.2755171	QUES SUPER
-3.025664	COLON SUPER
-4.894795	THROW SUPER
-2.8414152	BARBAR SUPER
-3.004504	AMPAMP SUPER
-2.3634305	BANG SUPER
-4.695002	PERCENT SUPER
-3.966637	GTEQ SUPER
-4.625667	STAREQ SUPER
-3.3122244	PLUSEQ SUPER
-4.205926	SUBEQ SUPER
-5.0632915	AMP SUPER
-4.393894	BAR SUPER
-3.5543227	PERCENTEQ SUPER
-3.1314592	BAREQ SUPER
-3.187999	CARET SUPER
-3.3260071	AMPEQ SUPER
-3.4858327	ARROW SUPER
-3.9645464	ASSERT SUPER
-3.7844636	PACKAGE RBRACE
-3.2793372	IDENTIFIER RBRACE
-7.3337426	DOT RBRACE
-0.5615272	SEMI RBRACE
-2.0322301	CLASS RBRACE
-6.8245087	LT RBRACE
-3.6237097	GT RBRACE
-1.6022427	LBRACE RBRACE
-7.0437255	LPAREN RBRACE
-2.9935508	RPAREN RBRACE
-6.2825055	SUPER RBRACE
-0.6903831	RBRACE RBRACE
-7.09464	INT RBRACE
-6.8178225	EQ RBRACE
-6.6376386	IF RBRACE
-2.71137	NULL RBRACE
-2.9429808	COMMA RBRACE
-1.9791543	INTLITERAL RBRACE
-6.1700087	NEW RBRACE
-5.755242	SLASH RBRACE
-6.9293656	PLUS RBRACE
-1.8886993	FLOATLITERAL RBRACE
-6.444201	ELSE RBRACE
-6.93936	RETURN RBRACE
-6.745887	LBRACKET RBRACE
-3.0754166	RBRACKET RBRACE
-6.6612988	FOR RBRACE
-4.5474644	PLUSPLUS RBRACE
-2.480737	TRUE RBRACE
-4.157666	THIS RBRACE
-2.470053	FALSE RBRACE
-1.8665498	STRINGLITERAL RBRACE
-6.16116	QUES RBRACE
-6.218013	TRY RBRACE
-6.4912543	CATCH RBRACE
-2.8960896	COLON RBRACE
-4.662784	GTGT RBRACE
-6.3850145	THROW RBRACE
-3.2447405	ELLIPSIS RBRACE
-5.9651685	BARBAR RBRACE
-6.209148	AMPAMP RBRACE
-5.821767	FINALLY RBRACE
-5.7397017	BANG RBRACE
-5.801464	SWITCH RBRACE
-6.1933646	CASE RBRACE
-3.825675	PERCENT RBRACE
-6.077908	INSTANCEOF RBRACE
-4.168649	DO RBRACE
-5.7441688	WHILE RBRACE
-5.7217402	AMP RBRACE
-5.417366	BAR RBRACE
-5.4851894	SYNCHRONIZED RBRACE
-1.8436108	CHARLITERAL RBRACE
-1.5485393	DOUBLELITERAL RBRACE
-1.4762897	LONGLITERAL RBRACE
-4.9865313	CARET RBRACE
-2.3786082	UNDERSCORE RBRACE
-3.4215848	<s> EOF
-6.9076524	IDENTIFIER EOF
-7.9633317	DOT EOF
-3.7461586	SEMI EOF
-7.617475	IMPORT EOF
-6.0265775	CLASS EOF
-5.241906	GT EOF
-7.016491	LBRACE EOF
-6.676737	RPAREN EOF
-1.2877734	RBRACE EOF
-7.1835613	NULL EOF
-5.7663445	INTLITERAL EOF
-6.48262	STAR EOF
-6.170469	RBRACKET EOF
-6.006288	FALSE EOF
-6.689413	COLON EOF
-4.54644	ELLIPSIS EOF
-4.5656123	<s> INT
-4.072137	IDENTIFIER INT
-7.8816915	DOT INT
-1.9369092	SEMI INT
-1.3183017	PUBLIC INT
-5.0621367	EXTENDS INT
-3.4056518	LT INT
-3.5965428	GT INT
-1.8164762	LBRACE INT
-1.8003387	LPAREN INT
-3.333322	RPAREN INT
-5.1177235	SUPER INT
-2.3872688	RBRACE INT
-6.9280295	VOID INT
-4.9169087	EQ INT
-4.655737	BANGEQ INT
-1.373411	PROTECTED INT
-1.588343	COMMA INT
-1.95579	NEW INT
-3.4434242	EQEQ INT
-4.698666	RETURN INT
-1.3009187	PRIVATE INT
-0.79841745	FINAL INT
-5.165998	QUES INT
-6.4861746	TRY INT
-2.6715143	COLON INT
-1.481246	STATIC INT
-3.5550766	GTGT INT
-4.0552344	BARBAR INT
-5.315934	AMPAMP INT
-5.259799	BANG INT
-2.4464648	DEFAULT INT
-2.890292	INSTANCEOF INT
-0.92254925	NATIVE INT
-4.843277	DO INT
-5.4823112	BAR INT
-1.4185641	SYNCHRONIZED INT
-0.9397989	VOLATILE INT
-1.420852	ABSTRACT INT
-4.457107	AMPEQ INT
-4.5724263	ASSERT INT
-1.108897	TRANSIENT INT
-1.6587136	STRICTFP INT
-6.1738696	<s> FLOAT
-5.1245675	IDENTIFIER FLOAT
-2.9660277	SEMI FLOAT
-2.5742161	PUBLIC FLOAT
-5.9686065	EXTENDS FLOAT
-4.0308223	LT FLOAT
-5.1749434	GT FLOAT
-2.9998002	LBRACE FLOAT
-2.8823254	LPAREN FLOAT
-4.128228	RPAREN FLOAT
-5.8908362	SUPER FLOAT
-3.5716171	RBRACE FLOAT
-5.5165944	EQ FLOAT
-5.636986	BANGEQ FLOAT
-2.3816962	PROTECTED FLOAT
-2.5414302	COMMA FLOAT
-2.6482284	NEW FLOAT
-7.039351	PLUS FLOAT
-3.5706747	EQEQ FLOAT
-4.895219	RETURN FLOAT
-2.1944962	PRIVATE FLOAT
-2.044125	FINAL FLOAT
-5.489853	QUES FLOAT
-3.633273	COLON FLOAT
-2.6884556	STATIC FLOAT
-5.494409	GTGT FLOAT
-4.1488314	BARBAR FLOAT
-6.3153706	AMPAMP FLOAT
-6.3478765	BANG FLOAT
-3.9356961	DEFAULT FLOAT
-3.0407183	INSTANCEOF FLOAT
-1.8770554	NATIVE FLOAT
-3.0962372	SYNCHRONIZED FLOAT
-2.569222	VOLATILE FLOAT
-2.527204	ABSTRACT FLOAT
-4.4798574	AMPEQ FLOAT
-2.5187185	TRANSIENT FLOAT
-1.4868761	STRICTFP FLOAT
-4.6756387	<s> VOID
-4.262394	IDENTIFIER VOID
-2.7951417	SEMI VOID
-0.555015	PUBLIC VOID
-2.5566382	GT VOID
-2.809892	LBRACE VOID
-4.8747444	LPAREN VOID
-3.964185	RPAREN VOID
-2.4461694	RBRACE VOID
-5.633169	EQ VOID
-4.1001744	BANGEQ VOID
-0.567334	PROTECTED VOID
-4.816163	COMMA VOID
-6.372402	STAR VOID
-3.907567	EQEQ VOID
-5.242914	RETURN VOID
-1.0100771	PRIVATE VOID
-1.9513305	FINAL VOID
-5.2836957	QUES VOID
-5.8692684	COLON VOID
-1.1535997	STATIC VOID
-2.503659	GTGT VOID
-4.8663836	BARBAR VOID
-4.940662	AMPAMP VOID
-4.737131	BANG VOID
-1.5605546	DEFAULT VOID
-0.5284031	NATIVE VOID
-0.6565439	SYNCHRONIZED VOID
-0.73145604	ABSTRACT VOID
-3.7329068	GTGTGT VOID
-0.74502265	STRICTFP VOID
-1.1656202	IDENTIFIER EQ
-8.198935	DOT EQ
-8.024787	SEMI EQ
-6.2453494	CLASS EQ
-4.4456205	GT EQ
-6.4124813	RPAREN EQ
-7.0010777	RBRACE EQ
-7.248205	INT EQ
-7.6471205	EQ EQ
-6.697971	BANGEQ EQ
-6.873885	INTLITERAL EQ
-5.492732	EQEQ EQ
-6.867156	LBRACKET EQ
-0.90963966	RBRACKET EQ
-6.904957	THIS EQ
-6.629652	COLON EQ
-4.311163	GTEQ EQ
-3.6905186	ENUM EQ
-5.2627997	ASSERT EQ
-1.5052373	UNDERSCORE EQ
-0.9623799	CONST EQ
-1.8127569	GOTO EQ
-4.6869793	<s> IF
-7.8774443	IDENTIFIER IF
-7.067447	DOT IF
-1.3347703	SEMI IF
-4.7210956	GT IF
-1.0769451	LBRACE IF
-8.300313	LPAREN IF
-3.5554283	RPAREN IF
-1.4051093	RBRACE IF
-7.5250297	INTLITERAL IF
-0.46729794	ELSE IF
-1.4519526	COLON IF
-6.0208	BARBAR IF
-4.6740127	AMPAMP IF
-5.2747116	PERCENT IF
-3.9696648	DO IF
-6.3182387	DOUBLELITERAL IF
-2.3119118	IDENTIFIER BANGEQ
-4.0337176	CLASS BANGEQ
-5.700944	GT BANGEQ
-2.3179636	RPAREN BANGEQ
-7.636155	RBRACE BANGEQ
-2.2353861	NULL BANGEQ
-3.2644548	INTLITERAL BANGEQ
-4.0838695	FLOATLITERAL BANGEQ
-2.2368956	RBRACKET BANGEQ
-3.6526563	PLUSPLUS BANGEQ
-5.3355255	TRUE BANGEQ
-3.890694	THIS BANGEQ
-5.268223	FALSE BANGEQ
-4.6456027	STRINGLITERAL BANGEQ
-1.972357	SUBSUB BANGEQ
-3.5905042	CHARLITERAL BANGEQ
-4.0135946	DOUBLELITERAL BANGEQ
-4.053795	LONGLITERAL BANGEQ
-3.5365617	UNDERSCORE BANGEQ
-7.5525208	DOT NULL
-5.994465	SEMI NULL
-6.947002	LT NULL
-4.8731365	GT NULL
-3.634836	LBRACE NULL
-2.4728725	LPAREN NULL
-3.4852128	RPAREN NULL
-1.5273218	EQ NULL
-0.13226236	BANGEQ NULL
-1.737258	COMMA NULL
-4.963897	PLUS NULL
-0.33169255	EQEQ NULL
-1.3297029	RETURN NULL
-6.5719814	LBRACKET NULL
-1.373318	QUES NULL
-1.7076987	COLON NULL
-5.9327545	GTGT NULL
-4.129669	THROW NULL
-2.8379583	BARBAR NULL
-2.8628135	AMPAMP NULL
-6.396225	BANG NULL
-4.2294765	PLUSEQ NULL
-4.88861	SUBEQ NULL
-5.353021	BAR NULL
-4.423456	BAREQ NULL
-4.8997245	CARET NULL
-4.390636	CARETEQ NULL
-3.72782	AMPEQ NULL
-2.333564	ARROW NULL
-2.2982078	ASSERT NULL
-2.661078	<s> MONKEYS_AT
-5.5117903	PACKAGE MONKEYS_AT
-3.1200483	IDENTIFIER MONKEYS_AT
-5.623561	DOT MONKEYS_AT
-1.9157252	SEMI MONKEYS_AT
-7.2854986	IMPORT MONKEYS_AT
-2.8557258	PUBLIC MONKEYS_AT
-5.854172	CLASS MONKEYS_AT
-3.4638414	EXTENDS MONKEYS_AT
-3.8114784	LT MONKEYS_AT
-4.651615	GT MONKEYS_AT
-1.6243778	LBRACE MONKEYS_AT
-2.5456445	LPAREN MONKEYS_AT
-2.6354468	RPAREN MONKEYS_AT
-4.3920817	SUPER MONKEYS_AT
-0.8754458	RBRACE MONKEYS_AT
-4.4669857	INT MONKEYS_AT
-5.331534	FLOAT MONKEYS_AT
-3.8416357	EQ MONKEYS_AT
-6.344144	BANGEQ MONKEYS_AT
-6.4972463	MONKEYS_AT MONKEYS_AT
-3.2206197	PROTECTED MONKEYS_AT
-2.054854	COMMA MONKEYS_AT
-4.538174	NEW MONKEYS_AT
-5.4441648	SUB MONKEYS_AT
-3.7138307	STAR MONKEYS_AT
-6.9355273	RETURN MONKEYS_AT
-6.895994	LBRACKET MONKEYS_AT
-4.505046	RBRACKET MONKEYS_AT
-3.2621737	PRIVATE MONKEYS_AT
-5.0711045	BOOLEAN MONKEYS_AT
-2.9782584	FINAL MONKEYS_AT
-7.3061967	STRINGLITERAL MONKEYS_AT
-6.1559052	QUES MONKEYS_AT
-4.2204967	COLON MONKEYS_AT
-3.337177	STATIC MONKEYS_AT
-4.714105	THROWS MONKEYS_AT
-5.037069	GTGT MONKEYS_AT
-4.000208	ELLIPSIS MONKEYS_AT
-6.2042165	AMPAMP MONKEYS_AT
-6.246341	BANG MONKEYS_AT
-3.005099	DEFAULT MONKEYS_AT
-4.293482	INSTANCEOF MONKEYS_AT
-0.71760696	NATIVE MONKEYS_AT
-4.94243	DOUBLE MONKEYS_AT
-5.5481052	PLUSEQ MONKEYS_AT
-4.781563	SHORT MONKEYS_AT
-4.386061	IMPLEMENTS MONKEYS_AT
-4.937536	BYTE MONKEYS_AT
-4.0402594	AMP MONKEYS_AT
-4.2149744	BAR MONKEYS_AT
-3.5536885	SYNCHRONIZED MONKEYS_AT
-4.2575617	CHAR MONKEYS_AT
-5.427346	LONG MONKEYS_AT
-2.788597	VOLATILE MONKEYS_AT
-2.7786474	ABSTRACT MONKEYS_AT
-3.8096375	TRANSIENT MONKEYS_AT
-2.3358128	STRICTFP MONKEYS_AT
-5.3217225	<s> PROTECTED
-2.9673953	IDENTIFIER PROTECTED
-2.377361	SEMI PROTECTED
-7.49716	PUBLIC PROTECTED
-5.835575	GT PROTECTED
-2.580365	LBRACE PROTECTED
-3.320345	RPAREN PROTECTED
-1.8339443	RBRACE PROTECTED
-6.8792048	EQ PROTECTED
-3.8084662	SLASH PROTECTED
-6.5948586	PRIVATE PROTECTED
-3.4184108	FINAL PROTECTED
-3.489406	STATIC PROTECTED
-5.3590274	DEFAULT PROTECTED
-4.202041	NATIVE PROTECTED
-3.254433	SYNCHRONIZED PROTECTED
-3.2090623	VOLATILE PROTECTED
-2.0086725	ABSTRACT PROTECTED
-1.8466239	TRANSIENT PROTECTED
-1.8507794	STRICTFP PROTECTED
-1.2163589	IDENTIFIER COMMA
-7.7783265	SEMI COMMA
-0.96190953	CLASS COMMA
-1.8667845	GT COMMA
-6.477744	LBRACE COMMA
-6.570269	LPAREN COMMA
-1.4169754	RPAREN COMMA
-1.8426297	RBRACE COMMA
-5.512225	INT COMMA
-6.938238	EQ COMMA
-1.025169	NULL COMMA
-6.108944	MONKEYS_AT COMMA
-6.8209558	COMMA COMMA
-0.49197635	INTLITERAL COMMA
-3.859416	NEW COMMA
-7.0527306	PLUS COMMA
-5.280465	STAR COMMA
-0.1672517	FLOATLITERAL COMMA
-1.4050622	RBRACKET COMMA
-1.7658342	PLUSPLUS COMMA
-0.9313565	TRUE COMMA
-1.3242637	THIS COMMA
-6.556813	BOOLEAN COMMA
-0.89243627	FALSE COMMA
-0.5314295	STRINGLITERAL COMMA
-1.473563	QUES COMMA
-2.0393233	GTGT COMMA
-5.461295	ELLIPSIS COMMA
-5.8447556	INTERFACE COMMA
-2.1914148	SUBSUB COMMA
-0.5664088	CHARLITERAL COMMA
-6.5296507	LONG COMMA
-0.24489884	DOUBLELITERAL COMMA
-0.27938113	LONGLITERAL COMMA
-2.620099	GTGTGT COMMA
-2.01767	UNDERSCORE COMMA
-5.0093966	<s> INTLITERAL
-6.5254407	PACKAGE INTLITERAL
-6.2973638	IDENTIFIER INTLITERAL
-8.139823	DOT INTLITERAL
-5.6291447	SEMI INTLITERAL
-1.4794612	LT INTLITERAL
-1.210089	GT INTLITERAL
-2.3026102	LBRACE INTLITERAL
-1.5562112	LPAREN INTLITERAL
-2.5887852	RPAREN INTLITERAL
-6.7150064	RBRACE INTLITERAL
-1.0565045	EQ INTLITERAL
-1.0821501	BANGEQ INTLITERAL
-6.292227	MONKEYS_AT INTLITERAL
-0.9933671	COMMA INTLITERAL
-7.116988	INTLITERAL INTLITERAL
-0.27223322	SUB INTLITERAL
-0.39885634	SLASH INTLITERAL
-1.1315199	PLUS INTLITERAL
-0.8532982	STAR INTLITERAL
-6.0954795	FLOATLITERAL INTLITERAL
-0.77692944	EQEQ INTLITERAL
-6.297521	ELSE INTLITERAL
-1.4537243	RETURN INTLITERAL
-0.6986727	LBRACKET INTLITERAL
-4.582363	RBRACKET INTLITERAL
-0.44585633	LTEQ INTLITERAL
-1.097949	QUES INTLITERAL
-1.5412208	COLON INTLITERAL
-0.98118633	GTGT INTLITERAL
-6.3818865	THROW INTLITERAL
-2.982265	BARBAR INTLITERAL
-3.0225024	AMPAMP INTLITERAL
-0.6142003	CASE INTLITERAL
-2.2234209	DEFAULT INTLITERAL
-0.22004518	PERCENT INTLITERAL
-0.32272243	GTEQ INTLITERAL
-0.6516626	STAREQ INTLITERAL
-0.79899466	PLUSEQ INTLITERAL
-0.7579954	SUBEQ INTLITERAL
-0.29410067	AMP INTLITERAL
-1.4075541	BAR INTLITERAL
-0.122507006	LTLT INTLITERAL
-0.5611481	SLASHEQ INTLITERAL
-5.9249935	DOUBLELITERAL INTLITERAL
-0.051888846	GTGTEQ INTLITERAL
-0.33460474	PERCENTEQ INTLITERAL
-0.05819142	LTLTEQ INTLITERAL
-0.38561037	BAREQ INTLITERAL
-0.27007842	GTGTGT INTLITERAL
-1.598773	CARET INTLITERAL
-1.2929688	CARETEQ INTLITERAL
-0.94866127	AMPEQ INTLITERAL
-0.26886708	TILDE INTLITERAL
-2.1906645	ARROW INTLITERAL
-2.3088045	ASSERT INTLITERAL
-0.060692675	GTGTGTEQ INTLITERAL
-1.7698354	GOTO INTLITERAL
-5.4805765	<s> NEW
-8.172849	IDENTIFIER NEW
-4.648988	DOT NEW
-3.2765625	SEMI NEW
-5.300336	LT NEW
-4.445327	GT NEW
-2.5477457	LBRACE NEW
-1.7780511	LPAREN NEW
-3.8678238	RPAREN NEW
-3.9456458	RBRACE NEW
-0.75898767	EQ NEW
-4.549053	BANGEQ NEW
-1.6242243	COMMA NEW
-4.3536563	SUB NEW
-4.246976	SLASH NEW
-2.9833953	PLUS NEW
-4.6147666	STAR NEW
-4.224794	EQEQ NEW
-4.0758257	ELSE NEW
-1.1749384	RETURN NEW
-4.6682215	LBRACKET NEW
-6.186334	PLUSPLUS NEW
-4.2629123	LTEQ NEW
-1.7356551	QUES NEW
-1.9202229	COLON NEW
-0.062948994	THROW NEW
-3.4401112	BARBAR NEW
-2.7200172	AMPAMP NEW
-2.8909388	BANG NEW
-6.416034	CASE NEW
-4.097074	PERCENT NEW
-4.4019303	GTEQ NEW
-4.689644	SUBSUB NEW
-4.396158	STAREQ NEW
-3.1103647	PLUSEQ NEW
-3.3897247	SUBEQ NEW
-4.713128	AMP NEW
-4.6808085	BAR NEW
-5.4180675	LTLT NEW
-6.09693	DOUBLELITERAL NEW
-3.843008	GTGTEQ NEW
-3.4096928	BAREQ NEW
-5.119004	GTGTGT NEW
-3.9668906	CARET NEW
-3.685488	CARETEQ NEW
-2.8795385	AMPEQ NEW
-4.9390373	TILDE NEW
-1.4050303	ARROW NEW
-0.97276604	COLCOL NEW
-2.7341306	ASSERT NEW
-2.7875679	IDENTIFIER SUB
-6.4539332	SEMI SUB
-3.2241135	LT SUB
-2.6894298	GT SUB
-3.2933097	LBRACE SUB
-2.9133515	LPAREN SUB
-2.658436	RPAREN SUB
-2.2128882	EQ SUB
-1.6513797	BANGEQ SUB
-6.982245	NULL SUB
-1.9623457	COMMA SUB
-2.5130925	INTLITERAL SUB
-4.0887256	SUB SUB
-3.0737822	SLASH SUB
-3.5120418	PLUS SUB
-2.6996639	STAR SUB
-2.116384	FLOATLITERAL SUB
-1.7425338	EQEQ SUB
-2.302109	RETURN SUB
-4.329458	LBRACKET SUB
-2.3289342	RBRACKET SUB
-4.398775	PLUSPLUS SUB
-2.2659009	LTEQ SUB
-6.9439635	STRINGLITERAL SUB
-2.0898194	QUES SUB
-2.4439492	COLON SUB
-4.018754	GTGT SUB
-3.9096227	BARBAR SUB
-3.8295765	AMPAMP SUB
-1.9935439	CASE SUB
-2.7305737	DEFAULT SUB
-2.8922133	PERCENT SUB
-2.2101731	GTEQ SUB
-4.33718	SUBSUB SUB
-1.2965639	STAREQ SUB
-2.9008057	PLUSEQ SUB
-3.209477	SUBEQ SUB
-2.9429033	AMP SUB
-3.386034	BAR SUB
-2.9416778	LTLT SUB
-2.64906	SLASHEQ SUB
-2.8732271	CHARLITERAL SUB
-2.1033115	DOUBLELITERAL SUB
-2.6214852	GTGTEQ SUB
-2.742881	PERCENTEQ SUB
-2.803687	LTLTEQ SUB
-3.1105306	LONGLITERAL SUB
-3.6779745	BAREQ SUB
-2.2497165	GTGTGT SUB
-2.541261	CARET SUB
-2.417094	CARETEQ SUB
-2.4951975	AMPEQ SUB
-3.7336555	TILDE SUB
-3.1565907	ARROW SUB
-3.1789691	ASSERT SUB
-2.572818	GTGTGTEQ SUB
-6.4952273	<s> SLASH
-3.3257568	IDENTIFIER SLASH
-8.229714	DOT SLASH
-8.092618	SEMI SLASH
-3.1117415	LT SLASH
-5.992309	GT SLASH
-7.661141	LBRACE SLASH
-2.9150288	RPAREN SLASH
-2.9601777	INTLITERAL SLASH
-3.7167668	STAR SLASH
-1.9042017	FLOATLITERAL SLASH
-3.0136993	RBRACKET SLASH
-4.5338635	PLUSPLUS SLASH
-7.691203	STRINGLITERAL SLASH
-5.2636924	CHARLITERAL SLASH
-1.7952471	DOUBLELITERAL SLASH
-3.2727296	LONGLITERAL SLASH
-2.263607	IDENTIFIER PLUS
-3.6677513	CLASS PLUS
-6.1763625	LT PLUS
-4.6537967	GT PLUS
-4.1144156	LBRACE PLUS
-4.6471634	LPAREN PLUS
-2.1590652	RPAREN PLUS
-6.9871616	RBRACE PLUS
-4.5843563	EQ PLUS
-3.910331	BANGEQ PLUS
-5.074567	NULL PLUS
-3.5426555	COMMA PLUS
-2.133265	INTLITERAL PLUS
-4.9463005	SUB PLUS
-5.210981	SLASH PLUS
-4.389794	PLUS PLUS
-4.448681	STAR PLUS
-2.1990137	FLOATLITERAL PLUS
-4.345665	EQEQ PLUS
-4.292982	RETURN PLUS
-6.1587734	LBRACKET PLUS
-2.0386727	RBRACKET PLUS
-3.0988503	PLUSPLUS PLUS
-3.8554258	LTEQ PLUS
-4.7725368	TRUE PLUS
-3.0079005	THIS PLUS
-4.814688	FALSE PLUS
-0.6731132	STRINGLITERAL PLUS
-3.8929377	QUES PLUS
-4.261198	COLON PLUS
-5.4469295	GTGT PLUS
-5.9651685	BARBAR PLUS
-5.333442	CASE PLUS
-4.91432	PERCENT PLUS
-4.4890003	GTEQ PLUS
-4.6807494	SUBSUB PLUS
-4.5587893	STAREQ PLUS
-4.3067527	PLUSEQ PLUS
-4.2883267	SUBEQ PLUS
-5.7217402	AMP PLUS
-4.7659945	BAR PLUS
-5.2044578	LTLT PLUS
-3.7781086	SLASHEQ PLUS
-1.3953289	CHARLITERAL PLUS
-2.0430748	DOUBLELITERAL PLUS
-3.8210983	GTGTEQ PLUS
-3.4969177	PERCENTEQ PLUS
-2.5411313	LONGLITERAL PLUS
-5.1000295	BAREQ PLUS
-4.582395	CARET PLUS
-4.283199	CARETEQ PLUS
-4.3990984	AMPEQ PLUS
-4.9194794	TILDE PLUS
-3.7902024	GTGTGTEQ PLUS
-2.2035222	UNDERSCORE PLUS
-0.65952635	CONST PLUS
-1.1983258	GOTO PLUS
-4.7121496	<s> STAR
-2.9282815	IDENTIFIER STAR
-2.436557	DOT STAR
-6.1499095	SEMI STAR
-6.719459	PUBLIC STAR
-7.0972095	LT STAR
-5.761783	GT STAR
-6.706923	LBRACE STAR
-5.81478	LPAREN STAR
-2.8972468	RPAREN STAR
-5.199541	RBRACE STAR
-7.198524	INT STAR
-5.834019	VOID STAR
-6.873476	COMMA STAR
-1.882366	INTLITERAL STAR
-4.4032383	STAR STAR
-1.7822133	FLOATLITERAL STAR
-2.3252282	RBRACKET STAR
-3.780106	PLUSPLUS STAR
-6.2780266	BOOLEAN STAR
-7.586222	STRINGLITERAL STAR
-4.7056975	COLON STAR
-5.9960165	STATIC STAR
-6.112292	BARBAR STAR
-6.3551393	AMPAMP STAR
-6.19783	BANG STAR
-4.884577	SUBSUB STAR
-4.714077	CHARLITERAL STAR
-1.5839478	DOUBLELITERAL STAR
-2.0691168	LONGLITERAL STAR
-3.6908557	UNDERSCORE STAR
-0.95422477	CONST STAR
-3.3604922	LT FLOATLITERAL
-3.2004797	GT FLOATLITERAL
-3.489205	LBRACE FLOATLITERAL
-3.0071805	LPAREN FLOATLITERAL
-5.6296706	RPAREN FLOATLITERAL
-2.7517533	EQ FLOATLITERAL
-3.2797225	BANGEQ FLOATLITERAL
-6.967148	MONKEYS_AT FLOATLITERAL
-1.9320819	COMMA FLOATLITERAL
-1.075533	SUB FLOATLITERAL
-1.1169071	SLASH FLOATLITERAL
-2.686939	PLUS FLOATLITERAL
-1.8660309	STAR FLOATLITERAL
-3.1413105	EQEQ FLOATLITERAL
-3.3934677	RETURN FLOATLITERAL
-2.2408817	LTEQ FLOATLITERAL
-2.669188	QUES FLOATLITERAL
-3.0861416	COLON FLOATLITERAL
-4.6135836	BARBAR FLOATLITERAL
-4.404867	AMPAMP FLOATLITERAL
-3.782664	DEFAULT FLOATLITERAL
-2.4829783	PERCENT FLOATLITERAL
-2.2843468	GTEQ FLOATLITERAL
-1.4179143	STAREQ FLOATLITERAL
-2.565912	PLUSEQ FLOATLITERAL
-1.8193756	SUBEQ FLOATLITERAL
-5.546934	BAR FLOATLITERAL
-1.609001	SLASHEQ FLOATLITERAL
-1.6354567	PERCENTEQ FLOATLITERAL
-4.3296337	ARROW FLOATLITERAL
-4.6781693	ASSERT FLOATLITERAL
-2.2142825	IDENTIFIER EQEQ
-7.3439145	SEMI EQEQ
-3.1688216	CLASS EQEQ
-5.442356	GT EQEQ
-6.9128532	LBRACE EQEQ
-2.1818955	RPAREN EQEQ
-2.298984	NULL EQEQ
-2.8142037	INTLITERAL EQEQ
-3.567651	FLOATLITERAL EQEQ
-5.0171623	EQEQ EQEQ
-1.9722297	RBRACKET EQEQ
-3.173549	PLUSPLUS EQEQ
-3.7936363	TRUE EQEQ
-2.0960066	THIS EQEQ
-3.4756742	FALSE EQEQ
-3.759463	STRINGLITERAL EQEQ
-6.629652	COLON EQEQ
-2.6346695	SUBSUB EQEQ
-2.1531498	CHARLITERAL EQEQ
-3.273224	DOUBLELITERAL EQEQ
-3.509644	LONGLITERAL EQEQ
-4.21091	UNDERSCORE EQEQ
-7.377185	DOT ELSE
-2.6745224	SEMI ELSE
-5.357269	GT ELSE
-7.6412473	LBRACE ELSE
-7.883444	RPAREN ELSE
-1.2269257	RBRACE ELSE
-5.5869913	<s> RETURN
-8.594016	IDENTIFIER RETURN
-7.369196	DOT RETURN
-1.6077256	SEMI RETURN
-4.8968897	GT RETURN
-0.7448336	LBRACE RETURN
-2.1817746	RPAREN RETURN
-1.3809773	RBRACE RETURN
-7.0303974	MONKEYS_AT RETURN
-7.5460835	INTLITERAL RETURN
-1.8017799	ELSE RETURN
-0.8695789	COLON RETURN
-5.542106	ELLIPSIS RETURN
-4.958084	DO RETURN
-6.1121874	DOUBLELITERAL RETURN
-6.3700094	PACKAGE LBRACKET
-2.0269117	IDENTIFIER LBRACKET
-8.301292	DOT LBRACKET
-7.8077865	SEMI LBRACKET
-7.575477	IMPORT LBRACKET
-6.9982224	PUBLIC LBRACKET
-6.661524	CLASS LBRACKET
-6.484389	EXTENDS LBRACKET
-2.2193983	GT LBRACKET
-8.152223	LPAREN LBRACKET
-3.1744075	RPAREN LBRACKET
-5.6711593	RBRACE LBRACKET
-1.3661166	INT LBRACKET
-0.8684016	FLOAT LBRACKET
-6.253266	VOID LBRACKET
-5.2463818	MONKEYS_AT LBRACKET
-7.393118	INTLITERAL LBRACKET
-7.2894397	NEW LBRACKET
-7.0807934	PLUS LBRACKET
-1.3171071	RBRACKET LBRACKET
-7.073299	THIS LBRACKET
-1.940771	BOOLEAN LBRACKET
-7.586222	STRINGLITERAL LBRACKET
-6.572813	THROWS LBRACKET
-2.8384347	GTGT LBRACKET
-0.71743125	DOUBLE LBRACKET
-0.8878232	SHORT LBRACKET
-0.2551173	BYTE LBRACKET
-0.3751495	CHAR LBRACKET
-1.2088087	LONG LBRACKET
-3.7961464	GTGTGT LBRACKET
-4.150398	UNDERSCORE LBRACKET
-2.475212	IDENTIFIER RBRACKET
-5.407944	GT RBRACKET
-3.0462089	RPAREN RBRACKET
-7.0172367	RBRACE RBRACKET
-7.518744	EQ RBRACKET
-5.7317863	NULL RBRACKET
-1.1183608	INTLITERAL RBRACKET
-4.581669	FLOATLITERAL RBRACKET
-0.3171585	LBRACKET RBRACKET
-2.570909	RBRACKET RBRACKET
-1.0893921	PLUSPLUS RBRACKET
-6.6999803	TRUE RBRACKET
-7.003066	STRINGLITERAL RBRACKET
-1.2923274	SUBSUB RBRACKET
-2.4791684	CHARLITERAL RBRACKET
-4.4134226	DOUBLELITERAL RBRACKET
-4.420637	LONGLITERAL RBRACKET
-5.1930876	<s> FOR
-8.029648	IDENTIFIER FOR
-7.2744665	DOT FOR
-1.8926336	SEMI FOR
-4.995857	GT FOR
-1.9388882	LBRACE FOR
-8.363522	LPAREN FOR
-4.136245	RPAREN FOR
-2.3090255	RBRACE FOR
-3.6223874	ELSE FOR
-2.5514128	COLON FOR
-4.421343	PERCENT FOR
-6.284522	<s> PLUSPLUS
-2.586598	IDENTIFIER PLUSPLUS
-3.0110521	SEMI PLUSPLUS
-6.0032525	LT PLUSPLUS
-4.3764057	GT PLUSPLUS
-3.553471	LBRACE PLUSPLUS
-3.9296918	LPAREN PLUSPLUS
-4.853126	RPAREN PLUSPLUS
-4.033255	RBRACE PLUSPLUS
-4.0498266	EQ PLUSPLUS
-5.342406	BANGEQ PLUSPLUS
-4.1665063	COMMA PLUSPLUS
-4.9760275	SUB PLUSPLUS
-4.0101123	SLASH PLUSPLUS
-4.2632113	PLUS PLUSPLUS
-5.1667113	STAR PLUSPLUS
-4.5870943	EQEQ PLUSPLUS
-4.1978717	ELSE PLUSPLUS
-4.2229533	RETURN PLUSPLUS
-2.8796334	LBRACKET PLUSPLUS
-2.9477055	RBRACKET PLUSPLUS
-3.8461163	LTEQ PLUSPLUS
-4.406576	QUES PLUSPLUS
-3.7950187	COLON PLUSPLUS
-3.560448	BARBAR PLUSPLUS
-3.3357344	AMPAMP PLUSPLUS
-5.54062	GTEQ PLUSPLUS
-4.634805	DO PLUSPLUS
-3.6814857	STAREQ PLUSPLUS
-4.309553	PLUSEQ PLUSPLUS
-5.0521326	SUBEQ PLUSPLUS
-5.7925973	AMP PLUSPLUS
-5.313962	BAR PLUSPLUS
-4.6677423	LTLT PLUSPLUS
-3.8729062	GTGTEQ PLUSPLUS
-3.5507274	PERCENTEQ PLUSPLUS
-3.9559677	LTLTEQ PLUSPLUS
-4.3436155	CARETEQ PLUSPLUS
-4.599377	ARROW PLUSPLUS
-5.186218	ASSERT PLUSPLUS
-3.9221141	UNDERSCORE PLUSPLUS
-3.3973405	IDENTIFIER LTEQ
-6.839176	GT LTEQ
-3.444435	RPAREN LTEQ
-3.5624952	INTLITERAL LTEQ
-3.8200388	FLOATLITERAL LTEQ
-3.2348506	RBRACKET LTEQ
-4.136073	PLUSPLUS LTEQ
-2.9652662	SUBSUB LTEQ
-2.5638237	CHARLITERAL LTEQ
-3.7746348	DOUBLELITERAL LTEQ
-4.3302455	LONGLITERAL LTEQ
-4.281239	UNDERSCORE LTEQ
-4.87504	<s> PRIVATE
-3.4404101	IDENTIFIER PRIVATE
-1.4683099	SEMI PRIVATE
-7.027223	PUBLIC PRIVATE
-5.291562	GT PRIVATE
-1.5972884	LBRACE PRIVATE
-7.470556	LPAREN PRIVATE
-2.9539783	RPAREN PRIVATE
-1.2943915	RBRACE PRIVATE
-7.0015864	MONKEYS_AT PRIVATE
-6.4838963	PROTECTED PRIVATE
-6.88334	COMMA PRIVATE
-5.714749	SLASH PRIVATE
-6.85452	PRIVATE PRIVATE
-2.7798276	FINAL PRIVATE
-2.800544	STATIC PRIVATE
-3.2692826	NATIVE PRIVATE
-2.7554207	SYNCHRONIZED PRIVATE
-2.4582365	VOLATILE PRIVATE
-3.7660804	ABSTRACT PRIVATE
-1.556766	TRANSIENT PRIVATE
-1.6029681	STRICTFP PRIVATE
-6.1738696	<s> TRUE
-5.5259733	SEMI TRUE
-5.548278	GT TRUE
-3.8818622	LBRACE TRUE
-2.3499367	LPAREN TRUE
-6.0972066	RPAREN TRUE
-1.7300599	EQ TRUE
-3.8857255	BANGEQ TRUE
-1.9297969	COMMA TRUE
-5.3104873	INTLITERAL TRUE
-4.724663	PLUS TRUE
-2.6130567	EQEQ TRUE
-1.3777498	RETURN TRUE
-6.5560713	LBRACKET TRUE
-6.254985	PLUSPLUS TRUE
-4.4336324	TRUE TRUE
-5.763271	FALSE TRUE
-2.5712488	QUES TRUE
-3.1761355	COLON TRUE
-3.8117938	BARBAR TRUE
-3.9244833	AMPAMP TRUE
-4.0962243	BANG TRUE
-6.4566393	CASE TRUE
-2.2836127	DEFAULT TRUE
-5.363468	PLUSEQ TRUE
-5.065707	SUBEQ TRUE
-4.095536	AMP TRUE
-3.8545008	BAR TRUE
-3.6579401	GTGTEQ TRUE
-3.5616035	PERCENTEQ TRUE
-3.9641273	LTLTEQ TRUE
-2.9409382	BAREQ TRUE
-3.059396	CARET TRUE
-2.037126	CARETEQ TRUE
-2.5803194	AMPEQ TRUE
-4.974761	TILDE TRUE
-2.1532078	ARROW TRUE
-2.7477577	ASSERT TRUE
-6.2023764	<s> THIS
-5.8719597	IDENTIFIER THIS
-3.172589	DOT THIS
-1.7770559	SEMI THIS
-7.520409	IMPORT THIS
-2.7053292	LT THIS
-3.1371536	GT THIS
-1.3501129	LBRACE THIS
-1.9728329	LPAREN THIS
-3.0638165	RPAREN THIS
-2.5294437	RBRACE THIS
-2.0328662	EQ THIS
-2.5421543	BANGEQ THIS
-6.3865976	MONKEYS_AT THIS
-2.2015753	COMMA THIS
-2.2225275	SUB THIS
-2.2505352	SLASH THIS
-2.1679718	PLUS THIS
-2.3817382	STAR THIS
-2.1518035	EQEQ THIS
-3.0164843	ELSE THIS
-1.233571	RETURN THIS
-2.3154397	LBRACKET THIS
-2.9559731	PLUSPLUS THIS
-1.9958446	LTEQ THIS
-2.2074683	QUES THIS
-1.7562774	COLON THIS
-4.177884	GTGT THIS
-3.347835	THROW THIS
-5.4022875	ELLIPSIS THIS
-1.882086	BARBAR THIS
-1.5590185	AMPAMP THIS
-1.5028762	BANG THIS
-2.0938725	PERCENT THIS
-1.7323332	GTEQ THIS
-4.6067486	DO THIS
-2.4353542	SUBSUB THIS
-1.9544168	STAREQ THIS
-2.1710148	PLUSEQ THIS
-2.2258906	SUBEQ THIS
-2.931044	AMP THIS
-2.8246129	BAR THIS
-2.8452325	LTLT THIS
-2.3808846	SLASHEQ THIS
-3.8303533	GTGTEQ THIS
-2.3076952	PERCENTEQ THIS
-2.650671	BAREQ THIS
-3.5050285	GTGTGT THIS
-0.4435476	CARET THIS
-1.9945803	CARETEQ THIS
-2.2279415	AMPEQ THIS
-2.2109177	TILDE THIS
-2.2051322	ARROW THIS
-1.9804579	ASSERT THIS
-5.558626	<s> BOOLEAN
-4.7669206	IDENTIFIER BOOLEAN
-2.4819422	SEMI BOOLEAN
-1.2822311	PUBLIC BOOLEAN
-5.971183	EXTENDS BOOLEAN
-4.6465044	LT BOOLEAN
-3.2545278	GT BOOLEAN
-2.4265904	LBRACE BOOLEAN
-2.6819198	LPAREN BOOLEAN
-4.1597815	RPAREN BOOLEAN
-5.8939037	SUPER BOOLEAN
-2.7246544	RBRACE BOOLEAN
-5.434267	EQ BOOLEAN
-4.8289227	BANGEQ BOOLEAN
-1.2345675	PROTECTED BOOLEAN
-2.1193087	COMMA BOOLEAN
-2.9332874	NEW BOOLEAN
-7.0527306	PLUS BOOLEAN
-3.533709	EQEQ BOOLEAN
-4.859319	RETURN BOOLEAN
-1.3230772	PRIVATE BOOLEAN
-1.6013746	FINAL BOOLEAN
-5.492112	QUES BOOLEAN
-3.5470715	COLON BOOLEAN
-1.5644428	STATIC BOOLEAN
-3.4009967	GTGT BOOLEAN
-4.083027	BARBAR BOOLEAN
-5.0757732	AMPAMP BOOLEAN
-5.7703657	BANG BOOLEAN
-1.986759	DEFAULT BOOLEAN
-3.1672866	INSTANCEOF BOOLEAN
-1.3253236	NATIVE BOOLEAN
-1.2999953	SYNCHRONIZED BOOLEAN
-0.5654069	VOLATILE BOOLEAN
-1.2885693	ABSTRACT BOOLEAN
-1.2884282	TRANSIENT BOOLEAN
-4.4988294	<s> FINAL
-3.8222008	IDENTIFIER FINAL
-1.9241846	SEMI FINAL
-1.6008286	PUBLIC FINAL
-5.2018094	GT FINAL
-1.6478847	LBRACE FINAL
-2.0792208	LPAREN FINAL
-3.826577	RPAREN FINAL
-2.272139	RBRACE FINAL
-7.24993	EQ FINAL
-1.2626147	PROTECTED FINAL
-1.7533517	COMMA FINAL
-0.7478481	PRIVATE FINAL
-7.2034283	FINAL FINAL
-2.9528766	COLON FINAL
-0.38732874	STATIC FINAL
-1.9943092	NATIVE FINAL
-2.3875537	SYNCHRONIZED FINAL
-5.8098965	ABSTRACT FINAL
-1.4433308	TRANSIENT FINAL
-1.751405	STRICTFP FINAL
-7.391485	SEMI FALSE
-5.684874	GT FALSE
-3.9087515	LBRACE FALSE
-2.538733	LPAREN FALSE
-6.1083603	RPAREN FALSE
-1.7638013	EQ FALSE
-3.8904362	BANGEQ FALSE
-1.8975213	COMMA FALSE
-6.6412773	INTLITERAL FALSE
-4.9113526	PLUS FALSE
-1.7984589	EQEQ FALSE
-1.19255	RETURN FALSE
-6.0325885	LBRACKET FALSE
-4.3674245	TRUE FALSE
-5.467436	FALSE FALSE
-2.557066	QUES FALSE
-2.7405722	COLON FALSE
-3.3497396	BARBAR FALSE
-3.7600925	AMPAMP FALSE
-4.152176	BANG FALSE
-6.467413	CASE FALSE
-1.9898889	DEFAULT FALSE
-4.1617293	STAREQ FALSE
-3.824668	AMP FALSE
-3.5187554	BAR FALSE
-4.3078213	SLASHEQ FALSE
-3.8940468	GTGTEQ FALSE
-3.429176	LTLTEQ FALSE
-3.5921652	BAREQ FALSE
-2.9650326	CARET FALSE
-3.0952525	CARETEQ FALSE
-2.3117547	AMPEQ FALSE
-2.4513526	ARROW FALSE
-1.5212646	ASSERT FALSE
-3.8449454	GTGTGTEQ FALSE
-7.6527443	IDENTIFIER STRINGLITERAL
-8.225553	DOT STRINGLITERAL
-5.9039946	SEMI STRINGLITERAL
-5.453579	LT STRINGLITERAL
-4.275138	GT STRINGLITERAL
-1.9855939	LBRACE STRINGLITERAL
-1.0464932	LPAREN STRINGLITERAL
-4.669368	RPAREN STRINGLITERAL
-6.6452575	RBRACE STRINGLITERAL
-1.21553	EQ STRINGLITERAL
-3.3725069	BANGEQ STRINGLITERAL
-6.68082	MONKEYS_AT STRINGLITERAL
-0.9703962	COMMA STRINGLITERAL
-3.4442883	SUB STRINGLITERAL
-4.9380074	SLASH STRINGLITERAL
-0.2970736	PLUS STRINGLITERAL
-4.469053	STAR STRINGLITERAL
-2.9176934	EQEQ STRINGLITERAL
-6.5137568	ELSE STRINGLITERAL
-1.501854	RETURN STRINGLITERAL
-5.798265	LBRACKET STRINGLITERAL
-4.388641	LTEQ STRINGLITERAL
-1.3011715	QUES STRINGLITERAL
-1.5415989	COLON STRINGLITERAL
-1.6457211	BARBAR STRINGLITERAL
-2.2789373	AMPAMP STRINGLITERAL
-2.020465	BANG STRINGLITERAL
-1.6309607	CASE STRINGLITERAL
-1.4768159	DEFAULT STRINGLITERAL
-4.403526	GTEQ STRINGLITERAL
-0.91265464	PLUSEQ STRINGLITERAL
-4.299206	SUBEQ STRINGLITERAL
-4.9663887	AMP STRINGLITERAL
-4.19133	BAR STRINGLITERAL
-3.3978987	SLASHEQ STRINGLITERAL
-6.073186	CHARLITERAL STRINGLITERAL
-3.2989419	BAREQ STRINGLITERAL
-3.6256428	CARET STRINGLITERAL
-3.172359	CARETEQ STRINGLITERAL
-3.048107	AMPEQ STRINGLITERAL
-1.7936245	ARROW STRINGLITERAL
-5.2999945	COLCOL STRINGLITERAL
-2.0610597	ASSERT STRINGLITERAL
-3.3866649	IDENTIFIER QUES
-4.0346055	CLASS QUES
-1.1148111	LT QUES
-4.567811	GT QUES
-2.684225	RPAREN QUES
-1.4702652	NULL QUES
-2.636496	COMMA QUES
-2.384209	INTLITERAL QUES
-2.9312155	FLOATLITERAL QUES
-3.4738986	RBRACKET QUES
-5.610395	PLUSPLUS QUES
-3.5088127	TRUE QUES
-4.1149106	THIS QUES
-3.949355	FALSE QUES
-5.109373	STRINGLITERAL QUES
-6.222409	INSTANCEOF QUES
-5.191811	SUBSUB QUES
-2.7202928	CHARLITERAL QUES
-2.8126826	DOUBLELITERAL QUES
-3.300158	LONGLITERAL QUES
-5.2565556	<s> TRY
-7.2341914	DOT TRY
-2.1777945	SEMI TRY
-5.6239676	GT TRY
-1.8601874	LBRACE TRY
-4.4671555	RPAREN TRY
-2.4524922	RBRACE TRY
-3.8905132	ELSE TRY
-3.0554693	COLON TRY
-3.6217277	DO TRY
-7.6219616	SEMI CATCH
-5.7414837	GT CATCH
-7.190983	LBRACE CATCH
-1.4803944	RBRACE CATCH
-2.3429387	IDENTIFIER COLON
-3.6405814	CLASS COLON
-4.8631396	GT COLON
-2.6884775	RPAREN COLON
-6.4083066	SUPER COLON
-4.271511	RBRACE COLON
-5.428101	VOID COLON
-1.9470081	NULL COLON
-7.6642737	COMMA COLON
-1.5710942	INTLITERAL COLON
-6.0575852	NEW COLON
-6.6941714	PLUS COLON
-5.206769	STAR COLON
-2.4456453	FLOATLITERAL COLON
-2.595668	RBRACKET COLON
-4.2952175	PLUSPLUS COLON
-2.7100015	TRUE COLON
-3.5846925	THIS COLON
-6.8129873	BOOLEAN COLON
-2.542733	FALSE COLON
-2.3377259	STRINGLITERAL COLON
-6.350253	QUES COLON
-0.10537419	DEFAULT COLON
-4.4988	SUBSUB COLON
-0.94908726	CHARLITERAL COLON
-2.498183	DOUBLELITERAL COLON
-2.779561	LONGLITERAL COLON
-3.5243654	UNDERSCORE COLON
-5.407562	<s> STATIC
-4.5821943	IDENTIFIER STATIC
-2.6452053	SEMI STATIC
-1.3601084	IMPORT STATIC
-0.8028932	PUBLIC STATIC
-5.063772	GT STATIC
-2.8140695	LBRACE STATIC
-6.770497	LPAREN STATIC
-4.2137628	RPAREN STATIC
-2.333997	RBRACE STATIC
-1.2000921	PROTECTED STATIC
-0.6352663	PRIVATE STATIC
-1.734771	FINAL STATIC
-5.7952743	BANG STATIC
-2.0851023	NATIVE STATIC
-1.9653738	SYNCHRONIZED STATIC
-1.8524152	VOLATILE STATIC
-1.6147692	ABSTRACT STATIC
-2.1034799	TRANSIENT STATIC
-1.3004113	STRICTFP STATIC
-8.988256	IDENTIFIER THROWS
-6.6832767	GT THROWS
-1.6691308	RPAREN THROWS
-5.847972	RBRACKET THROWS
-2.9753385	IDENTIFIER GTGT
-5.5674114	GT GTGT
-3.908176	RPAREN GTGT
-4.337888	INTLITERAL GTGT
-6.382722	FLOATLITERAL GTGT
-2.9078097	RBRACKET GTGT
-5.5230813	PLUSPLUS GTGT
-7.732711	STRINGLITERAL GTGT
-1.3347628	QUES GTGT
-5.4476275	CHARLITERAL GTGT
-3.877925	LONGLITERAL GTGT
-2.6189394	GTGTGT GTGT
-6.568942	<s> THROW
-8.645812	IDENTIFIER THROW
-7.4311814	DOT THROW
-2.8531473	SEMI THROW
-5.399262	GT THROW
-1.5666742	LBRACE THROW
-2.9433591	RPAREN THROW
-2.7070794	RBRACE THROW
-2.446735	ELSE THROW
-1.8261652	COLON THROW
-6.2895513	THROW THROW
-3.587401	IDENTIFIER ELLIPSIS
-6.141381	SEMI ELLIPSIS
-2.9135652	GT ELLIPSIS
-6.2289133	LBRACE ELLIPSIS
-6.9041905	LPAREN ELLIPSIS
-6.9393563	RPAREN ELLIPSIS
-6.490753	RBRACE ELLIPSIS
-3.2328305	INT ELLIPSIS
-3.072702	FLOAT ELLIPSIS
-7.2201133	VOID ELLIPSIS
-5.948288	EQ ELLIPSIS
-7.15147	PLUS ELLIPSIS
-3.5192816	RBRACKET ELLIPSIS
-3.7831247	BOOLEAN ELLIPSIS
-3.2547455	GTGT ELLIPSIS
-6.260321	THROW ELLIPSIS
-4.773354	ELLIPSIS ELLIPSIS
-2.9271114	DOUBLE ELLIPSIS
-3.0978298	SHORT ELLIPSIS
-3.448036	BYTE ELLIPSIS
-2.8560765	CHAR ELLIPSIS
-3.138573	LONG ELLIPSIS
-4.475865	GTGTGT ELLIPSIS
-3.3421261	IDENTIFIER BARBAR
-2.9504123	CLASS BARBAR
-4.6191654	GT BARBAR
-2.5574775	RPAREN BARBAR
-1.4977387	NULL BARBAR
-2.316798	INTLITERAL BARBAR
-2.9887857	FLOATLITERAL BARBAR
-3.4473586	RBRACKET BARBAR
-6.4186378	PLUSPLUS BARBAR
-3.754923	TRUE BARBAR
-3.8857641	THIS BARBAR
-3.3016481	FALSE BARBAR
-4.6379366	STRINGLITERAL BARBAR
-1.5441743	CHARLITERAL BARBAR
-2.7239332	DOUBLELITERAL BARBAR
-3.0669901	LONGLITERAL BARBAR
-3.0730908	IDENTIFIER AMPAMP
-8.050662	SEMI AMPAMP
-3.407457	CLASS AMPAMP
-4.3031945	GT AMPAMP
-8.266379	LPAREN AMPAMP
-2.4012737	RPAREN AMPAMP
-1.1972313	NULL AMPAMP
-7.009625	MONKEYS_AT AMPAMP
-2.061684	INTLITERAL AMPAMP
-6.980898	PLUS AMPAMP
-2.7668576	FLOATLITERAL AMPAMP
-3.123489	RBRACKET AMPAMP
-1.9318906	TRUE AMPAMP
-3.9467387	THIS AMPAMP
-3.0290403	FALSE AMPAMP
-4.9816155	STRINGLITERAL AMPAMP
-6.4476147	AMPAMP AMPAMP
-1.3604444	CHARLITERAL AMPAMP
-2.52998	DOUBLELITERAL AMPAMP
-2.8279147	LONGLITERAL AMPAMP
-3.3694668	<s> INTERFACE
-5.607715	IDENTIFIER INTERFACE
-4.217732	SEMI INTERFACE
-1.9365697	PUBLIC INTERFACE
-5.8100734	GT INTERFACE
-3.9772217	LBRACE INTERFACE
-5.1729403	RPAREN INTERFACE
-3.5016496	RBRACE INTERFACE
-2.4956923	MONKEYS_AT INTERFACE
-3.2463806	PROTECTED INTERFACE
-3.2673564	PRIVATE INTERFACE
-7.1685166	THIS INTERFACE
-2.8108962	STATIC INTERFACE
-5.709782	SYNCHRONIZED INTERFACE
-3.0244627	ABSTRACT INTERFACE
-1.8542656	STRICTFP INTERFACE
-6.9888387	GT FINALLY
-7.685548	LBRACE FINALLY
-2.1620004	RBRACE FINALLY
-7.008554	IDENTIFIER BANG
-4.810313	SEMI BANG
-7.235212	PUBLIC BANG
-6.4305253	LT BANG
-5.569544	GT BANG
-6.4266496	LBRACE BANG
-2.0618825	LPAREN BANG
-7.4781146	RPAREN BANG
-3.1392176	EQ BANG
-5.402927	BANGEQ BANG
-3.2438407	COMMA BANG
-4.6744723	PLUS BANG
-4.6210623	EQEQ BANG
-2.5577629	RETURN BANG
-5.6777153	LBRACKET BANG
-6.8070297	PRIVATE BANG
-2.1170893	QUES BANG
-3.0695014	COLON BANG
-1.1067488	BARBAR BANG
-0.82103544	AMPAMP BANG
-4.165741	BANG BANG
-4.038772	PLUSEQ BANG
-3.063471	AMP BANG
-3.3998258	BAR BANG
-4.319973	SLASHEQ BANG
-3.905016	GTGTEQ BANG
-2.2300916	BAREQ BANG
-2.8390532	CARET BANG
-3.0610797	CARETEQ BANG
-1.7701933	AMPEQ BANG
-1.8810942	ARROW BANG
-1.2198352	ASSERT BANG
-5.1655803	<s> SWITCH
-7.5787873	DOT SWITCH
-3.037497	SEMI SWITCH
-6.110378	GT SWITCH
-2.5106828	LBRACE SWITCH
-5.510668	RPAREN SWITCH
-3.0270488	RBRACE SWITCH
-4.379605	ELSE SWITCH
-2.5721195	COLON SWITCH
-3.1016834	DO SWITCH
-6.374169	DOUBLELITERAL SWITCH
-2.085957	SEMI CASE
-6.273047	GT CASE
-2.18067	LBRACE CASE
-2.667205	RBRACE CASE
-1.072372	COLON CASE
-4.801946	IDENTIFIER DEFAULT
-2.8565385	SEMI DEFAULT
-4.032194	PUBLIC DEFAULT
-5.816701	GT DEFAULT
-3.7685595	LBRACE DEFAULT
-3.8215744	RPAREN DEFAULT
-3.2439532	RBRACE DEFAULT
-7.052034	RBRACKET DEFAULT
-6.913559	PRIVATE DEFAULT
-2.757647	COLON DEFAULT
-1.7583659	STRICTFP DEFAULT
-5.523152	PACKAGE PERCENT
-3.882529	IDENTIFIER PERCENT
-5.8550186	LT PERCENT
-6.5267916	LBRACE PERCENT
-3.7837813	RPAREN PERCENT
-6.8497105	RBRACE PERCENT
-4.3870306	INTLITERAL PERCENT
-6.7011175	SUB PERCENT
-4.0534153	FLOATLITERAL PERCENT
-4.1353674	RBRACKET PERCENT
-3.4060771	PLUSPLUS PERCENT
-6.693593	TRUE PERCENT
-7.4614053	STRINGLITERAL PERCENT
-5.4295735	SUBSUB PERCENT
-5.5656667	CHARLITERAL PERCENT
-4.000273	DOUBLELITERAL PERCENT
-4.0285344	LONGLITERAL PERCENT
-5.5579476	ARROW PERCENT
-2.8514369	IDENTIFIER INSTANCEOF
-7.9667997	DOT INSTANCEOF
-6.960039	CLASS INSTANCEOF
-6.320756	GT INSTANCEOF
-8.312241	LPAREN INSTANCEOF
-3.290259	RPAREN INSTANCEOF
-7.5218425	RBRACE INSTANCEOF
-5.573572	NULL INSTANCEOF
-7.0620384	INTLITERAL INSTANCEOF
-2.7633219	RBRACKET INSTANCEOF
-3.3766634	THIS INSTANCEOF
-6.395971	STRINGLITERAL INSTANCEOF
-5.757037	COLON INSTANCEOF
-4.5708957	AMPAMP INSTANCEOF
-4.7024527	BANG INSTANCEOF
-4.251727	UNDERSCORE INSTANCEOF
-3.243592	IDENTIFIER GTEQ
-6.839176	GT GTEQ
-3.3106422	RPAREN GTEQ
-3.630416	INTLITERAL GTEQ
-4.138856	FLOATLITERAL GTEQ
-3.1107914	RBRACKET GTEQ
-3.4034405	PLUSPLUS GTEQ
-6.634401	STRINGLITERAL GTEQ
-3.155641	SUBSUB GTEQ
-4.153239	CHARLITERAL GTEQ
-4.041946	DOUBLELITERAL GTEQ
-4.3825235	LONGLITERAL GTEQ
-6.320762	IDENTIFIER NATIVE
-3.9251976	SEMI NATIVE
-2.4014804	PUBLIC NATIVE
-6.2470984	GT NATIVE
-5.342598	LBRACE NATIVE
-5.855492	RPAREN NATIVE
-4.537239	RBRACE NATIVE
-2.5406206	PROTECTED NATIVE
-2.6122694	PRIVATE NATIVE
-3.007897	FINAL NATIVE
-1.7376955	STATIC NATIVE
-2.7080355	SYNCHRONIZED NATIVE
-5.4168954	<s> DO
-3.6309042	SEMI DO
-6.0565267	GT DO
-3.923396	LBRACE DO
-8.391627	LPAREN DO
-6.0640154	RPAREN DO
-4.4890823	RBRACE DO
-7.2759266	VOID DO
-5.1672707	ELSE DO
-2.6151295	COLON DO
-6.284522	<s> SUBSUB
-3.649689	IDENTIFIER SUBSUB
-3.985896	SEMI SUBSUB
-5.021314	LT SUBSUB
-6.0379677	GT SUBSUB
-4.129587	LBRACE SUBSUB
-4.325128	LPAREN SUBSUB
-5.526184	RPAREN SUBSUB
-4.826426	RBRACE SUBSUB
-5.1190805	EQ SUBSUB
-5.1517267	BANGEQ SUBSUB
-4.8437867	COMMA SUBSUB
-5.337264	SUB SUBSUB
-5.6471524	SLASH SUBSUB
-5.204364	PLUS SUBSUB
-4.8092446	STAR SUBSUB
-5.0050545	EQEQ SUBSUB
-4.9312983	ELSE SUBSUB
-4.926692	RETURN SUBSUB
-3.178939	LBRACKET SUBSUB
-3.8701336	RBRACKET SUBSUB
-4.2645597	LTEQ SUBSUB
-4.826578	QUES SUBSUB
-4.4571238	COLON SUBSUB
-5.7086554	GTGT SUBSUB
-4.305072	BARBAR SUBSUB
-3.7599866	AMPAMP SUBSUB
-4.9026155	GTEQ SUBSUB
-3.0507874	SUBSUB SUBSUB
-3.6149385	STAREQ SUBSUB
-5.603151	PLUSEQ SUBSUB
-4.3007827	SUBEQ SUBSUB
-4.41836	AMP SUBSUB
-5.066883	BAR SUBSUB
-4.270068	LTLT SUBSUB
-3.8729062	GTGTEQ SUBSUB
-4.970117	BAREQ SUBSUB
-4.9867783	GTGTGT SUBSUB
-4.6083055	CARET SUBSUB
-4.9413295	ARROW SUBSUB
-5.186218	ASSERT SUBSUB
-5.898194	<s> WHILE
-7.432197	DOT WHILE
-2.5333898	SEMI WHILE
-5.6239676	GT WHILE
-2.8845072	LBRACE WHILE
-5.6039414	RPAREN WHILE
-2.7544956	RBRACE WHILE
-4.3075733	ELSE WHILE
-6.2333794	PLUSPLUS WHILE
-2.7343433	COLON WHILE
-4.324135	IDENTIFIER STAREQ
-3.5064301	RBRACKET STAREQ
-5.964077	<s> DOUBLE
-4.8305607	IDENTIFIER DOUBLE
-8.244934	DOT DOUBLE
-2.738529	SEMI DOUBLE
-2.3648252	PUBLIC DOUBLE
-5.5678716	EXTENDS DOUBLE
-3.583174	LT DOUBLE
-4.2778907	GT DOUBLE
-2.7132936	LBRACE DOUBLE
-2.9680223	LPAREN DOUBLE
-4.288914	RPAREN DOUBLE
-5.7152205	SUPER DOUBLE
-3.2760813	RBRACE DOUBLE
-5.5426292	EQ DOUBLE
-5.342772	BANGEQ DOUBLE
-2.2390792	PROTECTED DOUBLE
-2.5633333	COMMA DOUBLE
-2.3629167	NEW DOUBLE
-7.0263715	PLUS DOUBLE
-3.506996	EQEQ DOUBLE
-6.53023	ELSE DOUBLE
-4.784112	RETURN DOUBLE
-2.2881436	PRIVATE DOUBLE
-1.9444518	FINAL DOUBLE
-5.054355	QUES DOUBLE
-3.7012823	COLON DOUBLE
-2.4253855	STATIC DOUBLE
-4.4026203	GTGT DOUBLE
-4.137864	BARBAR DOUBLE
-6.3028846	AMPAMP DOUBLE
-6.336586	BANG DOUBLE
-3.0258381	DEFAULT DOUBLE
-3.0055773	INSTANCEOF DOUBLE
-1.8970598	NATIVE DOUBLE
-2.7394264	SYNCHRONIZED DOUBLE
-2.3430884	VOLATILE DOUBLE
-2.2298946	ABSTRACT DOUBLE
-4.470614	AMPEQ DOUBLE
-2.236067	TRANSIENT DOUBLE
-0.8990284	STRICTFP DOUBLE
-3.0732195	IDENTIFIER PLUSEQ
-5.4390807	GT PLUSEQ
-6.887985	RPAREN PLUSEQ
-2.6172626	RBRACKET PLUSEQ
-7.798418	STRINGLITERAL PLUSEQ
-6.0625772	IDENTIFIER SHORT
-3.9866345	SEMI SHORT
-3.0548828	PUBLIC SHORT
-5.9750767	EXTENDS SHORT
-4.631764	LT SHORT
-5.8837023	GT SHORT
-3.8026054	LBRACE SHORT
-3.0880017	LPAREN SHORT
-4.5631566	RPAREN SHORT
-5.898546	SUPER SHORT
-4.455883	RBRACE SHORT
-5.7401285	EQ SHORT
-6.0478864	BANGEQ SHORT
-3.087908	PROTECTED SHORT
-3.5860214	COMMA SHORT
-3.2957857	NEW SHORT
-3.6445215	EQEQ SHORT
-4.9423885	RETURN SHORT
-3.1829276	PRIVATE SHORT
-2.5523841	FINAL SHORT
-5.661074	QUES SHORT
-4.1440516	COLON SHORT
-3.1176221	STATIC SHORT
-4.1893888	BARBAR SHORT
-6.3482533	AMPAMP SHORT
-6.377458	BANG SHORT
-4.205641	DEFAULT SHORT
-3.0633798	INSTANCEOF SHORT
-2.7909508	NATIVE SHORT
-3.8947644	SYNCHRONIZED SHORT
-3.2990878	VOLATILE SHORT
-3.0444224	ABSTRACT SHORT
-2.5973098	TRANSIENT SHORT
-2.9330564	IDENTIFIER IMPLEMENTS
-2.1453683	GT IMPLEMENTS
-7.759706	LBRACE IMPLEMENTS
-6.9521294	RPAREN IMPLEMENTS
-6.9431252	RBRACE IMPLEMENTS
-7.0477614	MONKEYS_AT IMPLEMENTS
-6.1923113	PLUS IMPLEMENTS
-5.451383	STAR IMPLEMENTS
-2.2614427	GTGT IMPLEMENTS
-3.1908796	GTGTGT IMPLEMENTS
-3.7341135	UNDERSCORE IMPLEMENTS
-6.3677015	<s> BREAK
-2.27264	SEMI BREAK
-5.9228163	GT BREAK
-2.7638385	LBRACE BREAK
-3.5648851	RPAREN BREAK
-2.4380474	RBRACE BREAK
-3.1135926	ELSE BREAK
-1.9187412	COLON BREAK
-4.9871984	DO BREAK
-3.857961	IDENTIFIER SUBEQ
-6.969425	GT SUBEQ
-8.18922	RPAREN SUBEQ
-3.3508396	RBRACKET SUBEQ
-6.320774	<s> BYTE
-5.2397923	IDENTIFIER BYTE
-2.924925	SEMI BYTE
-2.6154256	PUBLIC BYTE
-4.3223286	EXTENDS BYTE
-2.5978737	LT BYTE
-4.499989	GT BYTE
-2.7590735	LBRACE BYTE
-2.4228418	LPAREN BYTE
-3.7679985	RPAREN BYTE
-4.707816	SUPER BYTE
-3.381658	RBRACE BYTE
-5.4108696	EQ BYTE
-5.1360455	BANGEQ BYTE
-2.420618	PROTECTED BYTE
-2.8162222	COMMA BYTE
-1.9243035	NEW BYTE
-6.670997	PLUS BYTE
-3.5679367	EQEQ BYTE
-4.700314	RETURN BYTE
-2.4081752	PRIVATE BYTE
-1.983536	FINAL BYTE
-5.492112	QUES BYTE
-3.6020458	COLON BYTE
-2.3382769	STATIC BYTE
-4.4697456	GTGT BYTE
-4.2469034	BARBAR BYTE
-5.235422	AMPAMP BYTE
-5.5573587	BANG BYTE
-3.5276558	DEFAULT BYTE
-2.3798523	INSTANCEOF BYTE
-2.3391287	NATIVE BYTE
-2.6370277	SYNCHRONIZED BYTE
-2.4200718	VOLATILE BYTE
-2.4097176	ABSTRACT BYTE
-2.16865	TRANSIENT BYTE
-3.3021379	IDENTIFIER AMP
-3.9846945	GT AMP
-3.1966217	RPAREN AMP
-4.348053	NULL AMP
-3.1544824	INTLITERAL AMP
-5.2257943	FLOATLITERAL AMP
-2.0558228	RBRACKET AMP
-4.084762	PLUSPLUS AMP
-4.627995	TRUE AMP
-4.848259	FALSE AMP
-4.2017784	GTGT AMP
-4.9201846	SUBSUB AMP
-3.9941027	CHARLITERAL AMP
-4.6743703	DOUBLELITERAL AMP
-2.0142097	LONGLITERAL AMP
-3.5716126	IDENTIFIER BAR
-6.433883	CLASS BAR
-5.727121	GT BAR
-3.3212233	RPAREN BAR
-7.2753534	INT BAR
-4.7969627	NULL BAR
-2.9980109	INTLITERAL BAR
-6.116617	FLOATLITERAL BAR
-3.4388518	RBRACKET BAR
-6.193946	PLUSPLUS BAR
-4.544229	TRUE BAR
-7.161913	THIS BAR
-4.858566	FALSE BAR
-7.691203	STRINGLITERAL BAR
-3.9674428	CHARLITERAL BAR
-6.101437	DOUBLELITERAL BAR
-3.5023346	LONGLITERAL BAR
-3.9809818	IDENTIFIER LTLT
-7.1891255	DOT LTLT
-7.6872663	SEMI LTLT
-7.027223	PUBLIC LTLT
-6.5349307	GT LTLT
-6.4624667	LBRACE LTLT
-3.42341	RPAREN LTLT
-7.462891	RBRACE LTLT
-7.4815335	EQ LTLT
-2.7423189	INTLITERAL LTLT
-6.4417706	NEW LTLT
-6.3021655	FLOATLITERAL LTLT
-2.9686048	RBRACKET LTLT
-4.561274	PLUSPLUS LTLT
-6.293172	PRIVATE LTLT
-7.01636	STATIC LTLT
-3.8094609	LTLT LTLT
-2.9981837	CHARLITERAL LTLT
-5.80332	ABSTRACT LTLT
-6.2765713	DOUBLELITERAL LTLT
-1.8069215	LONGLITERAL LTLT
-4.7439723	COLCOL LTLT
-5.8732066	<s> SYNCHRONIZED
-5.6606154	IDENTIFIER SYNCHRONIZED
-8.412086	DOT SYNCHRONIZED
-3.3923402	SEMI SYNCHRONIZED
-2.3767538	PUBLIC SYNCHRONIZED
-6.2226133	GT SYNCHRONIZED
-2.7032645	LBRACE SYNCHRONIZED
-5.5901613	RPAREN SYNCHRONIZED
-3.2520063	RBRACE SYNCHRONIZED
-2.4850056	PROTECTED SYNCHRONIZED
-5.034611	ELSE SYNCHRONIZED
-2.7949445	PRIVATE SYNCHRONIZED
-3.729506	FINAL SYNCHRONIZED
-3.9924383	COLON SYNCHRONIZED
-2.7918017	STATIC SYNCHRONIZED
-3.3515947	NATIVE SYNCHRONIZED
-4.3850183	DO SYNCHRONIZED
-5.8233557	ABSTRACT SYNCHRONIZED
-2.1625617	STRICTFP SYNCHRONIZED
-4.722234	IDENTIFIER SLASHEQ
-3.6116717	RBRACKET SLASHEQ
-8.328442	IDENTIFIER CHARLITERAL
-7.718549	SEMI CHARLITERAL
-3.665818	LT CHARLITERAL
-3.6395435	GT CHARLITERAL
-3.4580195	LBRACE CHARLITERAL
-2.7066903	LPAREN CHARLITERAL
-3.5963473	RPAREN CHARLITERAL
-3.0025036	EQ CHARLITERAL
-2.2100441	BANGEQ CHARLITERAL
-2.3770623	COMMA CHARLITERAL
-2.617737	SUB CHARLITERAL
-4.871523	SLASH CHARLITERAL
-2.2084246	PLUS CHARLITERAL
-5.3685856	STAR CHARLITERAL
-1.5694008	EQEQ CHARLITERAL
-3.4164112	RETURN CHARLITERAL
-3.3656907	LBRACKET CHARLITERAL
-0.8993262	LTEQ CHARLITERAL
-2.8476999	QUES CHARLITERAL
-3.139767	COLON CHARLITERAL
-4.0666213	GTGT CHARLITERAL
-3.0965312	BARBAR CHARLITERAL
-3.688634	AMPAMP CHARLITERAL
-1.1603781	CASE CHARLITERAL
-3.7300794	DEFAULT CHARLITERAL
-4.0030046	PERCENT CHARLITERAL
-1.0910183	GTEQ CHARLITERAL
-3.2565408	STAREQ CHARLITERAL
-2.6604164	PLUSEQ CHARLITERAL
-2.7483284	SUBEQ CHARLITERAL
-3.8241503	AMP CHARLITERAL
-2.730626	BAR CHARLITERAL
-3.198262	LTLT CHARLITERAL
-2.77487	SLASHEQ CHARLITERAL
-2.665068	GTGTEQ CHARLITERAL
-2.8740888	PERCENTEQ CHARLITERAL
-2.8057795	LTLTEQ CHARLITERAL
-4.115617	BAREQ CHARLITERAL
-4.360339	GTGTGT CHARLITERAL
-3.4956615	CARET CHARLITERAL
-3.3258424	CARETEQ CHARLITERAL
-3.5432208	AMPEQ CHARLITERAL
-4.0676155	ARROW CHARLITERAL
-4.2396436	ASSERT CHARLITERAL
-3.1066256	GTGTGTEQ CHARLITERAL
-6.3284025	<s> CHAR
-5.9842434	IDENTIFIER CHAR
-3.474819	SEMI CHAR
-3.22957	PUBLIC CHAR
-5.1215262	EXTENDS CHAR
-4.1691985	LT CHAR
-5.5342326	GT CHAR
-3.0612934	LBRACE CHAR
-3.1546159	LPAREN CHAR
-6.0087585	RPAREN CHAR
-5.895446	SUPER CHAR
-3.778788	RBRACE CHAR
-5.784611	EQ CHAR
-5.5448256	BANGEQ CHAR
-2.9067373	PROTECTED CHAR
-3.332671	COMMA CHAR
-2.679164	NEW CHAR
-3.7260444	EQEQ CHAR
-4.9502177	RETURN CHAR
-3.1021397	PRIVATE CHAR
-2.4309313	FINAL CHAR
-5.567753	QUES CHAR
-3.9227965	COLON CHAR
-2.962618	STATIC CHAR
-4.700733	BARBAR CHAR
-6.170742	AMPAMP CHAR
-6.3653827	BANG CHAR
-4.530244	DEFAULT CHAR
-2.9809873	INSTANCEOF CHAR
-3.3000014	NATIVE CHAR
-3.63715	SYNCHRONIZED CHAR
-3.344629	VOLATILE CHAR
-2.9648328	ABSTRACT CHAR
-5.3896685	ASSERT CHAR
-2.9024935	TRANSIENT CHAR
-6.376209	<s> CONTINUE
-3.289714	SEMI CONTINUE
-6.061192	GT CONTINUE
-2.734895	LBRACE CONTINUE
-3.4471142	RPAREN CONTINUE
-3.7535677	RBRACE CONTINUE
-3.0099719	ELSE CONTINUE
-3.5232966	COLON CONTINUE
-6.305908	<s> LONG
-4.6091204	IDENTIFIER LONG
-2.7468667	SEMI LONG
-1.9630384	PUBLIC LONG
-5.6660986	EXTENDS LONG
-4.0734196	LT LONG
-4.2343698	GT LONG
-2.5575178	LBRACE LONG
-2.5996375	LPAREN LONG
-4.1406136	RPAREN LONG
-5.7172656	SUPER LONG
-3.111876	RBRACE LONG
-5.357253	EQ LONG
-4.918965	BANGEQ LONG
-2.127099	PROTECTED LONG
-2.3350823	COMMA LONG
-2.3998182	NEW LONG
-6.887948	PLUS LONG
-3.4906507	EQEQ LONG
-4.816165	RETURN LONG
-1.9413483	PRIVATE LONG
-1.5025276	FINAL LONG
-5.2023807	QUES LONG
-3.5973785	COLON LONG
-2.2640615	STATIC LONG
-4.228456	GTGT LONG
-4.092411	BARBAR LONG
-5.6551304	AMPAMP LONG
-6.1741943	BANG LONG
-2.9843545	DEFAULT LONG
-3.0207345	INSTANCEOF LONG
-1.4463356	NATIVE LONG
-1.9963377	SYNCHRONIZED LONG
-1.0498866	VOLATILE LONG
-2.0078726	ABSTRACT LONG
-4.4798574	AMPEQ LONG
-1.6211902	TRANSIENT LONG
-1.8354285	STRICTFP LONG
-6.6087723	IDENTIFIER VOLATILE
-4.271051	SEMI VOLATILE
-4.128053	PUBLIC VOLATILE
-6.3426147	GT VOLATILE
-4.583224	LBRACE VOLATILE
-6.0977607	RPAREN VOLATILE
-4.832944	RBRACE VOLATILE
-2.7667992	PROTECTED VOLATILE
-2.3302968	PRIVATE VOLATILE
-2.9672158	STATIC VOLATILE
-1.4824642	TRANSIENT VOLATILE
-4.101628	<s> ENUM
-6.546572	IDENTIFIER ENUM
-7.959891	DOT ENUM
-4.588605	SEMI ENUM
-2.5321896	PUBLIC ENUM
-5.8074503	GT ENUM
-4.2577043	LBRACE ENUM
-7.104291	LPAREN ENUM
-6.1905203	RPAREN ENUM
-4.0465794	RBRACE ENUM
-6.165694	INT ENUM
-7.5110426	EQ ENUM
-3.332279	PROTECTED ENUM
-3.104443	PRIVATE ENUM
-6.854916	BOOLEAN ENUM
-6.537954	FINAL ENUM
-2.850625	STATIC ENUM
-4.9053884	ABSTRACT ENUM
-3.883321	<s> ABSTRACT
-5.018567	IDENTIFIER ABSTRACT
-3.6409435	SEMI ABSTRACT
-1.9102753	PUBLIC ABSTRACT
-5.5029845	GT ABSTRACT
-4.1188993	LBRACE ABSTRACT
-5.011436	RPAREN ABSTRACT
-3.516286	RBRACE ABSTRACT
-1.5106984	PROTECTED ABSTRACT
-3.3866396	PRIVATE ABSTRACT
-7.2646656	FINAL ABSTRACT
-2.9307494	STATIC ABSTRACT
-1.9869249	STRICTFP ABSTRACT
-7.8308086	IDENTIFIER DOUBLELITERAL
-7.3039126	SEMI DOUBLELITERAL
-2.9753695	LT DOUBLELITERAL
-2.9325864	GT DOUBLELITERAL
-3.187617	LBRACE DOUBLELITERAL
-2.8958318	LPAREN DOUBLELITERAL
-4.039965	RPAREN DOUBLELITERAL
-7.432303	RBRACE DOUBLELITERAL
-2.649756	EQ DOUBLELITERAL
-2.98813	BANGEQ DOUBLELITERAL
-6.308065	MONKEYS_AT DOUBLELITERAL
-1.9597192	COMMA DOUBLELITERAL
-7.349843	INTLITERAL DOUBLELITERAL
-1.3462768	SUB DOUBLELITERAL
-1.1666936	SLASH DOUBLELITERAL
-2.4095304	PLUS DOUBLELITERAL
-1.7750928	STAR DOUBLELITERAL
-2.6072824	EQEQ DOUBLELITERAL
-3.2745097	RETURN DOUBLELITERAL
-1.8093002	LTEQ DOUBLELITERAL
-2.744181	QUES DOUBLELITERAL
-3.115577	COLON DOUBLELITERAL
-4.552632	BARBAR DOUBLELITERAL
-4.5520897	AMPAMP DOUBLELITERAL
-3.792708	DEFAULT DOUBLELITERAL
-2.4701025	PERCENT DOUBLELITERAL
-2.042065	GTEQ DOUBLELITERAL
-1.1141344	STAREQ DOUBLELITERAL
-2.2441413	PLUSEQ DOUBLELITERAL
-1.9769804	SUBEQ DOUBLELITERAL
-5.8072734	AMP DOUBLELITERAL
-5.5080795	BAR DOUBLELITERAL
-1.4763116	SLASHEQ DOUBLELITERAL
-5.768908	DOUBLELITERAL DOUBLELITERAL
-2.2059143	PERCENTEQ DOUBLELITERAL
-5.179243	GTGTGT DOUBLELITERAL
-3.2499206	ARROW DOUBLELITERAL
-4.205355	ASSERT DOUBLELITERAL
-5.0913897	IDENTIFIER GTGTEQ
-5.0653634	RBRACKET GTGTEQ
-5.4094663	IDENTIFIER PERCENTEQ
-5.8898044	LT PERCENTEQ
-5.305824	RBRACKET PERCENTEQ
-5.053123	IDENTIFIER LTLTEQ
-4.9114203	RBRACKET LTLTEQ
-7.810938	SEMI LONGLITERAL
-3.7523313	LT LONGLITERAL
-3.6109118	GT LONGLITERAL
-3.1106498	LBRACE LONGLITERAL
-2.70655	LPAREN LONGLITERAL
-5.247151	RPAREN LONGLITERAL
-7.383745	RBRACE LONGLITERAL
-2.4553485	EQ LONGLITERAL
-2.2693598	BANGEQ LONGLITERAL
-2.0884414	COMMA LONGLITERAL
-1.723985	SUB LONGLITERAL
-2.2891655	SLASH LONGLITERAL
-3.2883053	PLUS LONGLITERAL
-2.131779	STAR LONGLITERAL
-2.8032496	EQEQ LONGLITERAL
-3.400747	RETURN LONGLITERAL
-2.538299	LTEQ LONGLITERAL
-3.090219	QUES LONGLITERAL
-3.3945923	COLON LONGLITERAL
-3.7329097	GTGT LONGLITERAL
-4.808135	BARBAR LONGLITERAL
-5.0471034	AMPAMP LONGLITERAL
-3.6059308	DEFAULT LONGLITERAL
-2.2004724	PERCENT LONGLITERAL
-2.7025394	GTEQ LONGLITERAL
-1.9709985	STAREQ LONGLITERAL
-3.1648355	PLUSEQ LONGLITERAL
-3.3773758	SUBEQ LONGLITERAL
-1.334241	AMP LONGLITERAL
-2.556775	BAR LONGLITERAL
-2.774671	LTLT LONGLITERAL
-2.044339	SLASHEQ LONGLITERAL
-2.1461248	GTGTEQ LONGLITERAL
-1.5655552	PERCENTEQ LONGLITERAL
-2.593355	LTLTEQ LONGLITERAL
-2.3498585	BAREQ LONGLITERAL
-2.92376	GTGTGT LONGLITERAL
-2.4389076	CARET LONGLITERAL
-1.9890488	CARETEQ LONGLITERAL
-2.1272461	AMPEQ LONGLITERAL
-1.8700525	TILDE LONGLITERAL
-3.3135047	ARROW LONGLITERAL
-4.325162	ASSERT LONGLITERAL
-3.1071105	GTGTGTEQ LONGLITERAL
-3.753951	IDENTIFIER BAREQ
-7.23208	GT BAREQ
-3.0565386	RBRACKET BAREQ
-3.7626216	IDENTIFIER GTGTGT
-7.461056	SEMI GTGTGT
-6.9371343	LBRACE GTGTGT
-4.1558557	RPAREN GTGTGT
-7.111464	EQ GTGTGT
-4.548033	INTLITERAL GTGTGT
-6.3739595	FLOATLITERAL GTGTGT
-3.1106431	RBRACKET GTGTGT
-5.26401	PLUSPLUS GTGTGT
-2.6519089	QUES GTGTGT
-5.3475547	CHARLITERAL GTGTGT
-3.5122654	LONGLITERAL GTGTGT
-2.8674197	GTGTGT GTGTGT
-4.495778	IDENTIFIER CARET
-6.839176	GT CARET
-3.8358943	RPAREN CARET
-2.452093	NULL CARET
-4.173541	INTLITERAL CARET
-6.1412854	FLOATLITERAL CARET
-2.8000555	RBRACKET CARET
-4.5390496	TRUE CARET
-4.645194	FALSE CARET
-7.732711	STRINGLITERAL CARET
-4.6607113	CHARLITERAL CARET
-3.565324	LONGLITERAL CARET
-4.6452527	IDENTIFIER CARETEQ
-8.20828	RPAREN CARETEQ
-3.5389507	RBRACKET CARETEQ
-4.453617	IDENTIFIER AMPEQ
-6.9888387	GT AMPEQ
-3.6886802	RBRACKET AMPEQ
-7.7507386	SEMI TILDE
-6.682058	LT TILDE
-6.094462	GT TILDE
-6.6487193	LBRACE TILDE
-4.66701	LPAREN TILDE
-5.7020907	RPAREN TILDE
-4.039416	EQ TILDE
-5.247532	BANGEQ TILDE
-5.044964	COMMA TILDE
-4.7378445	SUB TILDE
-5.231997	SLASH TILDE
-5.210956	PLUS TILDE
-5.6579704	STAR TILDE
-5.322055	EQEQ TILDE
-4.342065	RETURN TILDE
-5.538419	LBRACKET TILDE
-4.053945	QUES TILDE
-4.8211412	COLON TILDE
-5.8657465	GTGT TILDE
-6.059587	BARBAR TILDE
-6.3028846	AMPAMP TILDE
-6.4496026	CASE TILDE
-4.9593396	PERCENT TILDE
-5.2884154	GTEQ TILDE
-3.9806895	STAREQ TILDE
-3.9062905	PLUSEQ TILDE
-4.596344	SUBEQ TILDE
-1.1162398	AMP TILDE
-2.7496738	BAR TILDE
-4.156362	LTLT TILDE
-3.7986395	SLASHEQ TILDE
-3.6537676	GTGTEQ TILDE
-3.980169	BAREQ TILDE
-4.4581094	GTGTGT TILDE
-3.0534787	CARET TILDE
-3.0941105	CARETEQ TILDE
-0.43381476	AMPEQ TILDE
-2.1379259	TILDE TILDE
-5.0616207	ARROW TILDE
-3.8318841	GTGTGTEQ TILDE
-3.4422066	IDENTIFIER ARROW
-8.29459	SEMI ARROW
-5.522776	GT ARROW
-2.9792538	RPAREN ARROW
-6.85982	COLON ARROW
-4.0582643	UNDERSCORE ARROW
-3.8425837	IDENTIFIER COLCOL
-3.631675	CLASS COLCOL
-4.4607205	GT COLCOL
-4.8623	RPAREN COLCOL
-3.6119306	SUPER COLCOL
-7.153599	RBRACE COLCOL
-7.304312	INT COLCOL
-7.357586	INTLITERAL COLCOL
-3.6540089	RBRACKET COLCOL
-2.7854085	THIS COLCOL
-4.89329	STRINGLITERAL COLCOL
-5.3878393	GTGT COLCOL
-5.5869913	<s> ASSERT
-8.741171	IDENTIFIER ASSERT
-6.993718	DOT ASSERT
-3.0248234	SEMI ASSERT
-6.7989035	GT ASSERT
-2.840523	LBRACE ASSERT
-5.0137286	RPAREN ASSERT
-3.5807507	RBRACE ASSERT
-6.5463676	INT ASSERT
-6.9897995	VOID ASSERT
-3.8858526	ELSE ASSERT
-6.868327	BOOLEAN ASSERT
-3.252102	COLON ASSERT
-5.8788424	INTERFACE ASSERT
-6.3360934	DOUBLELITERAL ASSERT
-6.15907	IDENTIFIER TRANSIENT
-4.477106	SEMI TRANSIENT
-4.345887	PUBLIC TRANSIENT
-6.839176	GT TRANSIENT
-5.1404715	LBRACE TRANSIENT
-6.5943627	RPAREN TRANSIENT
-5.1058345	RBRACE TRANSIENT
-2.6157906	PROTECTED TRANSIENT
-2.5553305	PRIVATE TRANSIENT
-3.2287946	FINAL TRANSIENT
-4.0420413	STATIC TRANSIENT
-2.3854618	VOLATILE TRANSIENT
-5.1844063	IDENTIFIER GTGTGTEQ
-5.232258	RBRACKET GTGTGTEQ
-6.55538	PACKAGE UNDERSCORE
-5.954323	IDENTIFIER UNDERSCORE
-4.4878793	DOT UNDERSCORE
-6.646531	SEMI UNDERSCORE
-7.5347486	IMPORT UNDERSCORE
-5.9937387	PUBLIC UNDERSCORE
-5.5365953	CLASS UNDERSCORE
-4.0875793	EXTENDS UNDERSCORE
-5.1654	LT UNDERSCORE
-5.026498	GT UNDERSCORE
-5.7213426	LBRACE UNDERSCORE
-5.134347	LPAREN UNDERSCORE
-6.8496556	RPAREN UNDERSCORE
-6.787259	RBRACE UNDERSCORE
-5.3693285	INT UNDERSCORE
-4.8182926	FLOAT UNDERSCORE
-5.468195	VOID UNDERSCORE
-5.3418922	EQ UNDERSCORE
-4.815734	MONKEYS_AT UNDERSCORE
-5.111842	PROTECTED UNDERSCORE
-4.8859572	COMMA UNDERSCORE
-6.016921	NEW UNDERSCORE
-4.9666142	PLUS UNDERSCORE
-6.124906	STAR UNDERSCORE
-4.985692	RETURN UNDERSCORE
-5.8079815	RBRACKET UNDERSCORE
-6.0526853	PLUSPLUS UNDERSCORE
-5.7131886	PRIVATE UNDERSCORE
-6.259758	BOOLEAN UNDERSCORE
-4.8880153	QUES UNDERSCORE
-5.1073475	COLON UNDERSCORE
-6.012592	BARBAR UNDERSCORE
-6.256247	AMPAMP UNDERSCORE
-5.259784	INTERFACE UNDERSCORE
-6.4225435	CASE UNDERSCORE
-5.2571898	SUBSUB UNDERSCORE
-4.818305	DOUBLE UNDERSCORE
-5.579634	PLUSEQ UNDERSCORE
-5.618908	SHORT UNDERSCORE
-6.032122	BREAK UNDERSCORE
-5.0290976	BYTE UNDERSCORE
-4.8190494	CHAR UNDERSCORE
-5.3665867	CONTINUE UNDERSCORE
-5.67546	LONG UNDERSCORE
-5.231403	ENUM UNDERSCORE
-5.0507283	ARROW UNDERSCORE
-4.932373	ASSERT UNDERSCORE
-2.1647136	UNDERSCORE UNDERSCORE
-5.884135	<s> STRICTFP
-7.693748	IDENTIFIER STRICTFP
-6.7559724	SEMI STRICTFP
-5.4156823	PUBLIC STRICTFP
-6.436482	GT STRICTFP
-6.685979	LBRACE STRICTFP
-7.807492	RPAREN STRICTFP
-6.250255	RBRACE STRICTFP
-6.5360775	PROTECTED STRICTFP
-6.057793	PRIVATE STRICTFP
-5.4291515	FINAL STRICTFP
-5.2380066	STATIC STRICTFP
-4.6123395	DEFAULT STRICTFP
-4.5659866	SYNCHRONIZED STRICTFP
-5.0069203	ABSTRACT STRICTFP
-7.997816	RBRACE EOF#
-5.1708627	<s> #
-1.6063558	# A
-0.37855747	A fatal
-0.37829342	fatal error
-0.37829342	An error
-0.67936826	error has
-0.37829342	has been
-0.37829342	have been
-0.67936826	been detected
-0.37855747	detected by
-0.37855747	by the
-1.5982645	# Java
-0.37793183	the Java
-0.37793183	VM: Java
-0.37793183	starting Java
-0.9789065	Java Runtime
-0.37829342	SE Runtime
-0.67936826	Runtime Environment:
-1.6063558	# SIGSEGV
-0.37855747	SIGSEGV (0xb)
-0.37855747	(0xb) at
-0.37855747	at pc=0x00007fe3f2a8c731,
-0.37855747	pc=0x00007fe3f2a8c731, pid=13760,
-0.37855747	pid=13760, tid=0x00007fe3a41d6700
-1.6063558	# JRE
-0.37855747	JRE version:
-0.37855747	version: Java(TM)
-0.37855747	Java(TM) SE
-0.67936826	Runtime Environment
-0.37855747	Environment (8.0_151-b12)
-0.37855747	(8.0_151-b12) (build
-0.37855747	(build 1.8.0_151-b12)
-0.97996014	Java VM:
-0.97996014	Java HotSpot(TM)
-0.37855747	HotSpot(TM) 64-Bit
-0.37855747	64-Bit Server
-0.37855747	Server VM
-0.37855747	VM (25.151-b12
-0.37855747	(25.151-b12 mixed
-0.37855747	mixed mode
-0.37855747	mode linux-amd64
-0.37855747	linux-amd64 compressed
-0.37855747	compressed oops)
-1.6063558	# Problematic
-0.37855747	Problematic frame:
-1.6063558	# V
-0.37855747	V [libjvm.so+0x6a2731]
-0.37855747	[libjvm.so+0x6a2731] BacktraceBuilder::push(Method*,
-0.37855747	BacktraceBuilder::push(Method*, int,
-0.37855747	int, Thread*)+0x201
-1.6063558	# Failed
-0.37829342	Failed to
-0.37829342	like to
-0.67936826	to write
-0.37829342	write core
-0.37829342	enable core
-0.67936826	core dump.
-0.37855747	dump. Core
-0.37855747	Core dumps
-0.37855747	dumps have
-0.67936826	been disabled.
-0.37855747	disabled. To
-0.37855747	To enable
-0.67936826	core dumping,
-0.37855747	dumping, try
-0.37855747	try "ulimit
-0.37855747	"ulimit -c
-0.37855747	-c unlimited"
-0.37855747	unlimited" before
-0.37855747	before starting
-0.97996014	Java again
-1.6063558	# An
-0.67936826	error report
-0.37855747	report file
-0.37855747	file with
-0.37855747	with more
-0.37855747	more information
-0.37855747	information is
-0.37855747	is saved
-0.37855747	saved as:
-1.6063558	# /media/crouton/alex/cmput563_insyn/hs_err_pid13760.log
-1.6063558	# If
-0.37855747	If you
-0.37855747	you would
-0.37855747	would like
-0.67936826	to submit
-0.37855747	submit a
-0.37855747	a bug
-0.37855747	bug report,
-0.37855747	report, please
-0.37855747	please visit:
-1.6063558	# http://bugreport.java.com/bugreport/crash.jsp
-8.604326	DOT CONST
-7.3618665	INT CONST
-7.6439614	EQ CONST
-8.306252	DOT GOTO
-7.182564	SEMI GOTO
-7.342239	RPAREN GOTO
-7.341822	INT GOTO
-7.8580475	EQ GOTO
-5.6311617	ELSE GOTO

\end\
